x1,x2,x3,y,a_t,b_t,c_t
-0.752759286915825,-0.7581550891998088,1.3799898659398222,0,0.2708008419615291,0.8966765165049291,0.3050889485675565
2.704285838459497,-1.0025274226115803,-1.8929280264077306,1,0.39319776430101044,0.10141375418264874,0.4319692167147352
1.3919636508684308,-1.9430765249828397,-0.920161833780683,1,0.5568755671578778,0.1084135682159385,0.2544399532388052
0.5919509051822196,0.6436000206089276,0.9796838211469092,1,0.8104100436992611,0.7441388828573702,0.581932091523236
-2.0638881573453807,-0.1402550369482265,-0.10746393285312017,0,0.19408578988850445,0.9407129379725905,0.28219125840014647
-2.0640328779827843,2.1942059539440217,1.431426231809363,1,0.5511512481903592,0.838060940636786,0.7098677611716847
-2.6514983269908035,-2.8073425171076503,2.767247407337158,0,0.21762501030120443,0.7761856831241348,0.1966578122164337
2.1970568746496113,0.8632075653307583,-2.300719873708815,1,0.7224656605643412,0.18253005025233232,0.7641234605007595
0.606690070459253,1.577693271069367,1.257406298388366,1,0.8830149052959918,0.5429631509801359,0.7350765729488272
1.2484354667762734,1.5569194151298422,-1.6179350662073129,0,0.8475889156490498,0.15692088568751744,0.7920140070222951
-2.8764930342251853,2.3164438025731506,-0.5131396355545847,0,0.6482308844710631,0.7583064203281207,0.7004539290490976
2.819459112971966,1.3742024569769642,-2.802823645229161,0,0.5796022360154668,0.0950222079977633,0.805767624513873
1.99465584480253,2.566860369886178,-2.184555706243806,0,0.8803054691519844,0.04011080378447656,0.8995913243853444
-1.725965335930343,-1.0040604010746512,-1.081336265706602,0,0.09042890373228532,0.8033269147446277,0.22570831762026386
-1.9090501967573963,0.019256500509258423,-0.9480851682720903,0,0.15580206364863028,0.8964518206177648,0.3413238838057236
-1.899572940879397,-2.9155220203026557,2.3975112987725744,0,0.1035707221116106,0.6951483688979406,0.1467861774749032
-1.1745465422427737,-2.9582544761802527,1.450877455599091,0,0.08108941582262255,0.6117611960426166,0.09941205099703583
0.14853858979342682,-1.5592402772908807,2.833097809122247,1,0.5725587905693835,0.5268674696290921,0.40132407638317885
-0.4083298881473052,-2.3951568171654882,0.594429062011443,0,0.16591422489353144,0.45952688977579176,0.11814040005340733
-1.2526251588117485,-1.4387317923854783,-1.5497176074520922,0,0.06856176531547514,0.6130788910460082,0.22206008329988267
0.6711173683342766,-1.9377402328296156,-1.0340698204701428,0,0.4142802058841145,0.17236153150173908,0.2369341021176796
-2.163036836087749,-2.828879850968111,-1.0809844602481975,0,0.04818727310382363,0.49273338594643284,0.09411161110063232
-1.247132108788691,2.455824878436296,-1.0410340340204904,0,0.3760114596566913,0.36933678923531943,0.6988021396993065
-0.8018289402378498,-2.9506612116666506,1.0377850386708936,0,0.09604708080147528,0.5165355359013174,0.09014112723121666
-0.26358009469778443,1.4164928660225122,0.18484756854249706,1,0.5921577729746221,0.6280714140795813,0.5632095287943445
1.7110557683580812,-2.087112678482901,-0.6874549314801341,1,0.5585986835912473,0.0827571973671699,0.22397896660707314
-1.8019573070498416,2.4733777319975996,-2.1054613876277006,0,0.2983743397412793,0.474358412540961,0.7940384935534262
0.08540663048166941,2.3567756375393145,-2.8671650223471246,0,0.6097336027923469,0.2484224562436468,0.8731914927377854
0.5544874131722546,0.9234068782155438,-1.6869919344738444,0,0.6781684057399188,0.3976797148366211,0.6947910053871561
-2.721297523680014,1.0334048988036306,-2.3551715761879124,0,0.30962054194260386,0.9085313774738621,0.6921143040497107
0.6452691114086302,-2.967965148181869,1.7126701851134367,0,0.4829912345766633,0.26791912386798983,0.18701641773651562
-1.9768552578762508,2.909229396681612,-2.3250122531166877,0,0.3495731632947129,0.47591073257259114,0.8481832490685572
-2.609690442088323,2.2669956214548863,1.3453694238410172,1,0.6848925207148,0.8808468541475721,0.7399226686559641
2.6933132235199997,2.370637354380552,-0.6860478613435044,1,0.8361186354173019,0.030507982453671707,0.7700990930201584
2.793792198447356,0.9554672223052316,-2.559729661537344,0,0.5550412597483797,0.12707547227476837,0.7553463346135324
1.8503840886987666,-0.9312784280727806,1.8763802965895149,1,0.8233234964425241,0.47587702926230563,0.49403171509067584
-1.1723173849597759,2.361891894542885,0.4777834214196801,1,0.4854547524272552,0.6002180001643617,0.6466774085170481
-2.413967315961697,-1.250898431092846,-1.5854309228185617,0,0.10922072638392326,0.8332186440771107,0.26712443859063
1.1053981590729416,0.3762692600532169,2.368087045996008,1,0.903699655082204,0.6727799031003356,0.7192918518698511
-0.3590850375623922,-2.4016141659367056,-2.728450116776691,0,0.07266407425627751,0.2931872583796402,0.24534343067665185
-2.267770590931327,2.5317337807965012,-1.7890823508134226,0,0.3962679885923598,0.5367219606048583,0.7892820826079232
-0.028938539332378888,-2.15537725337272,1.5122815668351661,0,0.33907794467565877,0.5149287725864292,0.20849174859043842
-2.7936688733086896,-1.6506191656175564,1.2562675818593352,0,0.2769083491750447,0.9429405200635126,0.21730616026794133
2.4559224124726926,0.34880494876929014,-1.2643698376531318,1,0.6780619235122392,0.18177137484222905,0.5773082042703108
-1.4473201103998985,1.5845580012778893,-2.6278507478833015,0,0.18472519343023977,0.6894041053166574,0.7289370011337439
0.9751337061238918,0.7161078356177937,2.148468433349663,1,0.9041542472616414,0.6707431376616536,0.7376544757550361
-1.1297335434635343,-1.607196523199063,-1.1178141715805845,0,0.07618197527507113,0.5574240242603609,0.1758296324017315
0.12040812706686488,-2.994341744835058,-1.8257195104304087,0,0.1341549325532973,0.12338934693270881,0.1648641570763502
0.2802616760596779,1.5429034818446352,0.09637093416586229,1,0.7712307404400209,0.4691923294330329,0.6315111120698372
-1.8908732668468378,2.9112439554665626,2.461363195694684,1,0.6835672098709451,0.6866866796044491,0.8526798565039472
2.817507766587351,1.8594787218365427,-2.738720532939748,0,0.6423975302237926,0.053652743622030506,0.8459304707349751
1.6507969401666873,-0.23876029106030794,1.5948245281853266,1,0.8646276355915545,0.6330023467927441,0.5664735139287986
2.6369936493851345,2.4226035683946394,0.4348393676322537,1,0.887647981718685,0.061938362267082256,0.7673621432286236
2.3689641025658927,-0.5409139612898999,-0.4473053006890986,1,0.655291552239133,0.23698850818615552,0.3784462386934299
0.5873998728665111,0.14960450546080528,1.46448266463036,1,0.7933839341880495,0.8041952409486437,0.5642393430558944
2.531245410138701,-0.1372213956259003,2.7949465466497934,1,0.83611501775004,0.3546973118090401,0.6495784406824087
-2.4690449876884832,-0.3142567640068501,-1.6247627330238539,0,0.170933109883336,0.9181510717032816,0.39872599238253764
-1.8241028254851288,1.6511446157634344,-2.1381158095672825,0,0.21960048592085382,0.6840888738670056,0.7051903404260721
-2.7286362665367716,0.16061344361695173,2.4772904713361825,0,0.5551535174532716,0.9780977694748088,0.5816411407753084
-1.048018015420414,-1.0996972678487036,1.013718464743822,0,0.1757536563764591,0.8783840809104155,0.2191294789003537
-0.6679362618631082,-1.45105099404913,-0.37208387062820414,0,0.1460153765995653,0.6042511199168551,0.17020666470628124
-1.3719058093566245,-2.7735160981953997,0.43955742158569855,0,0.06149568669025096,0.5685104852400084,0.0752509232327903
1.972425054911576,0.4991709712982759,1.4736834310574647,1,0.8881844492346893,0.5429780290339743,0.6500349019911611
-0.8594800398384645,-1.6202315075937948,1.6381913922343028,0,0.18924657663773417,0.7902937289293157,0.22418053407066516
-1.3143929418757154,-2.1111964679017015,2.5193650849137876,0,0.14795247143628454,0.6989140600416098,0.2231591780016878
0.25617649894949057,0.922979782966066,-0.43894326662626426,1,0.6703751838136992,0.5552007489575965,0.5504627861893115
-2.154454650151424,1.0872555469292928,-1.23953453988363,0,0.25352287820124714,0.8347290774283138,0.5389097213169786
1.813181884524238,1.5129293535459958,0.8379856007390512,1,0.921580144742245,0.2971647241912853,0.7234388633739264
-2.552696137921375,0.021461378031548684,-0.5056326043228179,0,0.2740591211273659,0.9479860521463226,0.3437257205217965
2.9213216196031038,2.3643276312233192,0.5675907236938675,1,0.8429286568671233,0.056458365797321206,0.7473247757726518
1.633468615779945,2.6180565203893664,-0.4800852092642991,1,0.9347502886164337,0.06480687966387547,0.8215040301654347
-1.8077059107949656,1.8442256387549367,-2.082025279930953,0,0.23855888448036575,0.625186650357498,0.7235886531968642
-2.9668672972583856,0.8135608920491233,-0.1834394900462497,0,0.5227323366463509,0.9556425425126869,0.4817557059795861
1.8927685707290047,-1.177674278452868,1.1455069316461968,1,0.7645402516057391,0.3972630297875796,0.36971223939966824
1.2411440630857022,2.897669529721327,1.7957028460058986,1,0.9679156965108069,0.18618044331216982,0.90278604561887
1.3740430082459234,-1.35518299684837,-0.04004233922071876,1,0.6859937099514931,0.29514597964821215,0.2848710135024065
1.6276220801156747,-1.7840584680574136,-2.0085726587375943,0,0.5007444357797202,0.10064626617214914,0.3871952060488699
-2.555732089595458,-0.34707531728050345,-0.5118737421034103,0,0.2393084329437861,0.9442841975322629,0.29622779913919695
-0.8492056287343646,-2.6589565757256692,1.7177635730501892,0,0.12561676262671093,0.5766140195065954,0.13913932209040972
-2.3047856428492217,2.870966788030745,-0.522844376297563,1,0.5411238647488942,0.5836952427894775,0.7295569010484927
2.178620555253561,0.5306013384985491,1.1791847616253337,1,0.8641734569372178,0.4847831180681826,0.6120360039871765
0.7397887609653475,0.3417125499850515,0.04328209006853889,1,0.7676410303793301,0.6385498472364337,0.49378745798094775
-1.0146118508841049,0.9347776793983193,-1.5526612493436198,0,0.21885983949987134,0.6952122018548056,0.5528244586199047
-2.6186498982838584,-0.017858113336759907,1.776903048138446,0,0.4439846812222823,0.981655545223273,0.472985761292219
-1.1341060697060268,-2.8076188974327505,-2.4947192755758776,0,0.02898791446113378,0.34337320980077124,0.16137295957442707
-1.0489000678395177,0.6738677330423806,0.1493416965309038,0,0.28524798321350336,0.8677222604833491,0.392488434471358
1.3776370700283849,1.297043261738584,-1.7466537945395704,0,0.8315467860808513,0.18741463646790818,0.7787269914241323
0.8253448281312785,-0.4995056362556811,-2.5976062287517463,0,0.5182763286703035,0.5077048235046127,0.6039702151732644
2.3232764554579592,1.543773432427157,0.0176036224994931,1,0.866708229839505,0.14017035980022008,0.6722413595302122
-0.16671044902830445,-1.6379922039694763,-0.0026270643904586777,0,0.25565168394023263,0.5127360023757315,0.1752062765023832
-2.28243452437019,-1.6723404536028958,1.241405410054325,0,0.16802520565049797,0.9142502879527666,0.18723844608174678
1.2794687233379705,-2.0314980738745563,1.468504158311429,1,0.7029942702294129,0.29718763629705053,0.2917684832466771
1.5647102917013846,-0.7680314412650286,1.366748932157381,1,0.8214175516597685,0.5736711879795723,0.4595527068905359
0.3676631854169772,2.0820722123345012,-0.5426476024994695,1,0.8049297852811989,0.2239554926147228,0.7240908875585389
1.6258030797273655,1.9674723728943864,0.7901387233593753,1,0.9381100273619281,0.21977939919566866,0.7734692196926354
-0.03722642181365554,-0.7030547522189772,0.4616714558637618,0,0.4331887831031254,0.7785157276711638,0.2922720784445481
0.13639697629196412,0.5347124158814194,-0.47062946329848243,1,0.5817907730285721,0.64702038519731,0.4824012002901117
-0.434753889848702,1.3248978988494935,0.5832761651159593,1,0.551232316191799,0.7360327297973375,0.5520933950270123
-2.8474852395354286,-1.5527593522318621,2.683487260237575,0,0.3998327438201225,0.931451726043212,0.35453500449782793
-2.3526514380401733,-1.9911534846315175,-1.842637537911736,0,0.06832046937667245,0.6721934646583599,0.2068067002513126
-2.8114248858795943,2.832575959273866,2.4346325747131576,1,0.8402883551482985,0.826446317102634,0.8754504391787334
0.8184624675826822,0.7053438792577111,-2.6792669161008096,0,0.6556652123998482,0.486671857758615,0.7618326842710378
-1.11386411354204,2.888494331001983,-1.149664722590036,0,0.4386192678825811,0.28709867516841797,0.763097254895898
0.051424146988216624,-0.9734640772066254,-1.2711285083308306,0,0.31196078089342955,0.49124661274815035,0.32935156855782804
2.445398843556558,1.2181901998447895,0.7581906472854341,1,0.8579668685938053,0.25719878949908925,0.6512172831811966
-1.5042466251067503,-1.6643781807525737,-2.212650289336258,0,0.04775840275568929,0.6296164821375243,0.25003966973742603
-0.5377024617862216,-1.4327989723565224,2.2940856710385225,0,0.3107918762652597,0.7539843790580876,0.32440129223669406
1.533306831258292,0.07141272761774387,1.9713084507902474,1,0.893408954618349,0.6490575137226962,0.654190731500463
-1.6272110070502652,-1.0822912469515726,0.9123949181116666,0,0.14616013622957394,0.9182359228630148,0.2051087492872879
-2.538120541027242,-1.9942706169564932,-0.24951700924681353,0,0.12749986593386908,0.796494124925324,0.12919668980829238
-1.2614912825173918,-1.422715788064044,2.597736252852471,0,0.20410137242191329,0.8246895842057728,0.30857541541331585
-2.0326722764759735,-2.7855096332048124,1.984479328323335,0,0.10524695953596146,0.7581139580189463,0.1384288898655952
2.578185914055439,1.2265417288649196,-0.004109111512530461,1,0.8042611035629994,0.15970415193435794,0.6105339142821901
1.8487222773865017,-0.04730005748483013,1.2112401267258672,1,0.8559636027065427,0.5926466109656964,0.5449634939718921
0.8004225390625406,-2.434541601572846,0.4015797130781076,0,0.49491985784978565,0.21770959645687302,0.16329855846602495
2.2287635411263063,-1.9698360412290528,0.527653430329587,1,0.5890969345857683,0.13047151907729676,0.21460252468453975
1.822032461394687,-2.384792771324136,-1.0141435833751724,1,0.4890690731249555,0.05096095721843439,0.2128875645633943
-1.880579646683785,0.6755568496552589,-0.22749237225061947,0,0.23883653779642586,0.9074609395894204,0.38633524910290834
2.355353990939866,-2.434737818325037,-2.5312714152615348,0,0.28593712950467604,0.039242390334131114,0.3169053296151525
0.23605345149390455,1.5256939982112963,-0.8559078500124451,1,0.7020074799151841,0.3399864139713783,0.6640057447789888
1.844640930984375,-2.876934484077653,1.1749710921729122,1,0.5885880561575699,0.12046267721802587,0.17743104741088872
2.376547799540959,-1.5037452720246474,2.719296183037118,1,0.7507788072670039,0.1774182587979967,0.45781443894910506
-1.0919791501688167,2.344000055351443,2.7783846765781215,1,0.6624440154477472,0.570565234083615,0.820356517944037
-2.3396884528339394,1.3111879087334763,0.33433721474934996,1,0.4201574523169189,0.9175483719583319,0.506731133041457
-1.63238902474835,-2.562190002445874,0.6397335108574924,0,0.07002335771266552,0.6725300621420042,0.08804978979045561
-0.4373532682424619,1.9267566269110787,-1.885672886994195,0,0.44086837127490747,0.3243415941094131,0.7579524009744959
1.9080885955349585,-0.04178927075877148,1.171848648561184,1,0.851465441043636,0.5787174624561897,0.5394586971406445
2.1643834995380606,2.0806981630129755,-2.5760472439536826,0,0.8192011053729131,0.06342745595101965,0.8810218909015486
-2.958287216812856,0.6044386467023601,-1.2918858852033328,0,0.41125798214127335,0.9359001089564214,0.537951056608942
0.06448381546539439,1.0909981921971523,1.0101800837126529,1,0.7201512185721771,0.7493563464526644,0.6021713042743492
-0.49553398110732605,2.9610093623742486,-1.1381392107390642,0,0.6048728628733459,0.1947308623865105,0.798470580710176
-1.6673531371756185,-1.605986724455891,-2.700918755313274,0,0.04284887079465892,0.7296955335245806,0.2871028532723818
-2.2808077959979034,0.7436734485683303,1.991222456105783,1,0.45801704853800207,0.9660022149327293,0.5858746284289481
-0.9743089715782323,-0.23807165965560984,-1.1380199571926217,0,0.15428085123554483,0.7875361173673502,0.33548839703259997
2.657458223475115,-2.7632882824638516,-2.6213686508479297,0,0.18695916966450699,0.026881450577603154,0.26154726860772587
-1.0607824078754686,-2.91317615098281,-2.551271012982809,0,0.028440842037679288,0.32963303171252595,0.15688108235695225
0.11274373046019637,-2.2846285330928477,-1.4894472072674783,0,0.19460031309865208,0.1717091525579992,0.20320132291954132
1.2181137533710675,0.8945504432312887,-1.9319043166708425,1,0.7816620091356192,0.2935298207529204,0.7481491954764563
-0.8182223857242361,0.40297852748035323,1.6458007066809053,1,0.40139200147199067,0.92103448727997,0.49682038643669646
2.8306924963257636,0.3205773669823646,-1.0698957199977934,1,0.5740008708759937,0.14935168796514003,0.5186425726383734
2.7746837696526674,-2.8088594248304393,1.8281747102389954,1,0.42119258403345267,0.06434495518590348,0.19551741563352848
-1.489306225047815,-0.1841820218399577,-1.9569240130610832,0,0.10209225234494278,0.8484745653480075,0.4204613481498213
-0.016508964645687296,2.547736907055171,-0.04272492273549755,1,0.7749173402617773,0.26673757149309385,0.735458338170921
-1.194730141099382,-0.6144487841361204,1.1282228013187723,0,0.20360192436390512,0.9288297447002876,0.2779106694477944
-1.2909570337351943,0.749534818730738,0.911945123195129,1,0.3114607900001265,0.9216269141005075,0.44008342265703543
-2.7786783158728032,1.6789120537388609,0.6067764595816127,1,0.6198681400062763,0.9236222687210583,0.6117328234894547
0.6573860038793811,1.703551674851326,2.5489296115870186,1,0.9264251027108553,0.4270866941507167,0.8430738115654727
0.016074139373168705,0.1156804943716283,-1.6288491137595338,0,0.39970262695399367,0.6178186338457674,0.5261879559149097
-2.6911274925000637,2.147711672414018,-0.03768477322736796,1,0.6009617218519617,0.8133611150436283,0.6490414053858989
-1.3281212145803314,-0.6517314398175182,2.3039553004344526,1,0.25148139334479597,0.9266737928867201,0.3906196810330588
2.4495953157999217,2.33215928870879,-2.5326374064290578,0,0.7963122093012185,0.03962078758710384,0.8874194859445769
-1.5626286559981655,-1.5586370016267281,-2.6646703904815485,0,0.04399573886260481,0.719778026514007,0.2909111624229648
-2.1306307674526614,-1.3187015580565737,-1.6001862746502515,0,0.08238147013819586,0.7865286615581274,0.24685339356502928
-0.06328343833462213,-2.6812762548059936,0.7981273172281109,0,0.23217655126998843,0.3720966668742505,0.12099018156197427
2.913902724663604,1.7734910192536972,-1.4407222413011587,1,0.688500938359534,0.03672857080470238,0.7482935616320913
-1.5476683709309975,-0.49766858260376656,-1.8585606971472062,0,0.09062715061753625,0.8349820073859653,0.3643369370673939
1.0328132844352709,-1.6253003165316058,-0.24718610785024753,0,0.59900233674775,0.2567562932305454,0.24666386267600732
1.569717691972306,-1.609258334300522,0.6815884126164686,1,0.7109179540274486,0.29715175179237985,0.2781128795444834
-1.574174736045602,2.408399647375399,-1.5086537578995576,0,0.3211727048929484,0.4180073998946181,0.7338004248345116
1.3692980916711575,2.0034996027662215,-1.1958528796575476,0,0.8921262093687176,0.09534945962923375,0.8039073758667978
-0.7933012036844804,0.32118531214309964,0.6813558288690835,1,0.33092376035460813,0.9015146000080466,0.3820826602659796
0.7938349835614771,0.6966648024943263,2.674430531936716,1,0.9020517379825728,0.6457852961414203,0.759445659319893
0.801178264565368,-0.15404657669825372,1.048450364628529,1,0.7883113507473272,0.7597853581806685,0.4863497260894703
0.21464810444855065,-0.6500007427271468,1.6974248615073595,1,0.6233360853189253,0.8142668021746186,0.4398788382510835
-2.45826137967355,2.4928612873099887,-0.7991394314671876,0,0.5149003510537091,0.62449197098084,0.7098185474244835
2.0118149735354276,-2.2463237788781876,-1.3664738436932036,1,0.45595742332608424,0.045422473292680385,0.25208571059769735
-1.075319610169585,-0.48931926170263207,-0.2743935407842648,0,0.1615702283186014,0.8493823676645473,0.24475522543446881
-1.8808889376008746,-0.9326285520727478,1.8427969722700421,0,0.20719233160086742,0.9475413663904158,0.308707304302958
-2.7553491506714165,-0.011095678493109773,-0.2622021492566651,0,0.34315282752821125,0.9616818428200034,0.3451894209431805
0.5453576591294507,-0.2542087527289496,2.0803524527391666,1,0.7816123508054563,0.7918679225956009,0.5741636185403066
1.065386171053694,0.11333718990648833,2.932631884170762,1,0.9045575176894644,0.6189756121752029,0.7124096882288697
-2.900473026432863,-2.1604861366380357,-2.567840005617982,0,0.09896480025041338,0.7812735027072529,0.2745073935704087
0.07255834979568565,0.0788490090796623,-2.727539063497778,0,0.33847553221831705,0.701949468919541,0.6304286192292309
-1.6410253488123723,-1.5454871166767348,-2.1024617825198293,0,0.05216421572777059,0.6769550368900529,0.25486689296879855
0.8710367424566989,-1.8940119060708525,-0.6937819455939227,0,0.49808876708047745,0.1786406123078175,0.2288484534304338
-1.9538014259700514,-2.6109946872828527,-2.2137467451274055,0,0.033538739105701196,0.4919517918052703,0.1627598084155943
1.1456264286147952,1.5759153525368452,2.2239868657125363,1,0.9438323049507181,0.40932905164668376,0.8339380638020129
-0.6795879221967756,-0.43534847486064,-2.861122493837617,0,0.11725143006208338,0.8081405430713448,0.49196684014947595
2.6203799324204073,0.7598620998705501,-1.105243701985065,1,0.6889588296918266,0.1356513446267996,0.6060245257261293
-2.1748743351240405,1.3655600598284598,-1.891832223034768,0,0.24613950732180498,0.789218522972372,0.6565371734528654
-0.9536018936984489,1.0758999918813208,2.589235980945194,1,0.5228497516155616,0.8455473320415369,0.6780845426090364
-2.3191588725564656,-0.17699568546190658,1.0168860293401671,0,0.29263139954396783,0.974216819782116,0.340216975794248
2.5481617096713762,-0.672608826289621,2.472181538708247,1,0.7762878183262617,0.33949990248668166,0.552854738248617
2.264036120285886,-0.7442405421560174,2.8339722618623604,1,0.8364216799565806,0.32815277737298215,0.5836210154589981
-1.4523502337090664,0.840292781580338,-0.01741053793578473,1,0.2545355455039012,0.8754888516920306,0.40300832848908325
0.9599042762050742,-0.031233870348759574,-1.5940853517118425,0,0.675871396984208,0.4333198534579212,0.5794601871594394
1.9033332012072952,2.0947934879310637,-1.8376272828204643,1,0.871460515121947,0.0574156517306208,0.8540593836076069
0.33120486959677375,2.2482119059602725,-1.6624868298849569,0,0.75271290176326,0.1526247836568158,0.8212414644141227
0.17790347013603913,-1.9766377319608892,1.2515598457320172,0,0.41401278266527436,0.5121375143250454,0.21889509172901706
-1.54888625459729,-2.182598090725646,-2.7573256312619954,0,0.031733430662391204,0.5713793760776503,0.22340614389802319
-2.441383393164605,0.7824055562159971,-2.691833561803711,0,0.2005414260390788,0.9241310473158094,0.6597023730907565
2.3832945477199603,-1.1926455116263235,0.6488576542989,1,0.6524588101878376,0.2610344453288614,0.30176653446307994
2.402508342979983,-2.888575687409407,0.8523428804244393,1,0.45557549275436054,0.07196942010430087,0.14272837948282555
0.7986087436396074,2.3318560161777304,0.99157754593476,1,0.9267618671274849,0.293034685723975,0.8040785098471637
-0.9658212537077961,-1.6385953965371505,-0.7687169724684528,0,0.0924830212009577,0.5509997569056441,0.15821558630623442
-0.9047425523240347,2.5756839101148543,1.835669332284919,1,0.6590679824876013,0.5954302349859277,0.7960516435597116
1.355734073221436,1.3046067052695216,0.20174752635970528,1,0.8982813151609369,0.34781638194772513,0.6645618395208466
2.382661559715462,1.5759209394689062,-2.3672062199434833,1,0.752132468823164,0.08303759052362128,0.8289545733543665
2.322518545590704,-1.7912310252410375,1.7825958424040715,1,0.675887074066793,0.1921590964140071,0.3368366372646257
1.6792532751457436,-1.5948334462991225,2.7184067176227495,1,0.8189562211669881,0.252603042662684,0.4741835437250884
0.8521898769257268,0.12760652294439456,-2.639782121985848,0,0.5989169557360661,0.5428401403913286,0.6933887227452843
-2.495160210029707,-1.967400884100827,-0.6518919677965203,0,0.11078164105300504,0.7517369690866413,0.13957237552569574
-2.0302277154323174,-1.1674098439018064,-0.07490373099151437,0,0.1244843282823283,0.8852222292236042,0.17399621145031527
2.3913251311624757,-1.0712251323131732,-2.1211754395300986,1,0.4627656885433761,0.12621699058794375,0.4729025533478294
0.6385743579575394,-2.0422204004834157,2.206253686697263,1,0.6306119328226553,0.37930814088546105,0.33400218007775256
-2.944817690300222,-1.7689029996290355,-1.295102130659736,0,0.17275257470937602,0.809399432713171,0.21829120495312368
-2.3911707428038076,1.7313110520495396,1.6980512396289607,1,0.5871387995912661,0.9180005011378497,0.6962414852603476
0.9810106146483348,-1.9968248727163898,1.0259668921698957,1,0.6355189743875626,0.3358002083087462,0.24512070770504932
-2.969630496922688,-2.8292556489364653,0.5882749348021408,0,0.1831994956888118,0.8350998941667215,0.10138319523540697
-2.035151691495008,0.7761296557736306,-1.8471429078206736,0,0.1813476332785116,0.8594870926523077,0.5608112080682688
0.2924027361995165,2.8558987163547,-1.6757788766945658,0,0.7953687723876283,0.11091508476812949,0.8677529923487025
1.15137118615616,-1.0127171122612717,-2.715909571520584,0,0.5122109124790314,0.3601558768210993,0.5530687277795758
0.9117675570156032,-2.2880657808224862,-1.5557254213064018,0,0.3953521078223238,0.098134199686797,0.2565191475024198
-1.6543841432366413,0.4223239522051845,-0.9273383432369151,0,0.1733881686270969,0.8650701787105344,0.39050456325639465
1.2730753280852154,2.438125266573877,1.998871823174552,1,0.9627712821027902,0.21471275808966694,0.8862341214292889
-1.5765054750191996,1.7043706789708732,-0.8016439997111684,0,0.291464197359689,0.6452995569122347,0.5682870371611841
-1.0476018110443936,0.7350952104762962,1.5277306965936388,1,0.38379423477324154,0.9189043493815353,0.5182518818240475
1.4789484307081446,-1.1096610203544037,-0.36334631222707436,1,0.6963217353195131,0.2894650757632255,0.3241337380367465
0.897797394283288,0.25128103965731974,1.7092098719633304,1,0.8595234159473591,0.7571984640585843,0.6300746245553792
2.0953404629650674,-2.4525309521744676,2.8576296026222394,1,0.7169437835000549,0.08268821211384662,0.3440446458866414
0.9456773538020604,1.07367254568402,-1.5609506516545193,1,0.7832812389466894,0.29230227032139044,0.7238496358617611
0.4098516200128297,1.3505761133859053,2.1740496717832567,1,0.8727186040313158,0.6249701166978157,0.7778873883167873
-2.437951393031445,2.790189737459513,0.7309445178346481,1,0.6556301533901515,0.7843152940946253,0.7394366091343174
-0.7937051816433991,-1.4376158475295702,1.903765569531929,0,0.2284449695259902,0.8108989474629699,0.27203411551490864
-1.4087857939096473,-2.889261485741864,0.9095154136068313,0,0.06585762917960727,0.6265567590986537,0.08051405366264906
-1.5360621397254985,0.27365078656290365,-0.4563029563550991,0,0.18255073030172275,0.888524354064987,0.3352772817707399
2.8380633285146732,1.240743026380887,-1.6315503633492578,1,0.6408928527851196,0.07042055699538623,0.7097891386469211
-0.6414136519994376,1.7424448552979275,-2.57978864801301,0,0.3099811857889434,0.48382140281427793,0.7736930853113448
2.3522793310626797,-1.8375664018511364,0.21311018676430216,1,0.5522966690528116,0.11404091174967881,0.21294221318972487
0.7868317559835774,-1.429482785777858,2.941956567161194,1,0.7738229871298268,0.42027755095512276,0.47891941332526955
1.7688678212498905,0.07554555160377774,1.4282508300852372,1,0.8740133674710022,0.6164207223544796,0.5906069068055407
0.015822558631152894,-1.0163951401799889,-1.0359267516059003,0,0.31104405981309186,0.5042070255599155,0.2976794385489087
0.4614233077581549,2.1630689195246706,1.9632288005204117,1,0.9120027645646993,0.40317598178005115,0.8411953533276418
-0.044893837086816824,-0.1574390775676786,1.6139040010584393,1,0.5837370624794264,0.872185622111571,0.47729867126972125
-1.828542073211733,1.7974718646120174,-1.3101852398792593,0,0.27993779020832815,0.6263953447434025,0.6371142094248718
1.334712691569032,0.4837185628941225,-2.9141550612345917,0,0.6955095340608589,0.459270081114586,0.7624682199770016
-1.3153658253548652,1.6385408497026717,-2.2910241687963024,0,0.21092333673130254,0.6094265922863635,0.716238809466861
-2.854104201411277,-1.003962080818057,2.2638371418723455,0,0.43827966913257355,0.9697092847117396,0.4021883124927475
0.8728337754430067,1.988499731581867,2.0193782118292303,1,0.9398734125617368,0.36486323671749,0.8476652214593482
-1.9373359235577063,-1.3525661066938706,-1.2287459947298254,0,0.07978539098204174,0.7595516613368032,0.2054328021600172
2.642751506117486,0.27659284801974504,-1.2888274422934776,1,0.6152087196694888,0.16353357014497646,0.5543334416765937
2.7235714620155242,-1.7159573209567547,1.7571899226148266,1,0.5690822056473476,0.15915028731323055,0.31549887408576743
2.489186341322691,-0.14684087024283965,2.6264248193725326,1,0.8355051745181403,0.3871313606127375,0.6433285738428058
-0.7790477984673334,-1.090948742947781,1.6748235407855994,0,0.25031545658326954,0.8668542942959202,0.29241364892877963
-2.9072603008267954,-1.3997794161767145,0.6334720621845689,0,0.29772840357604013,0.9499977856548726,0.20821253346708252
2.5699113755263525,2.801910108168225,-1.5439718980091728,1,0.8518687319093252,0.02009253373261915,0.8680875536926528
-0.43089511009611403,-2.0395553670796165,0.1544874845715638,0,0.16798750909883067,0.47758808785423323,0.13183253493647146
2.7999289142620176,1.723955024744372,-1.5989288484404123,1,0.7078327758413154,0.04217898249901438,0.7653897350791827
2.7817198625355175,2.9049897568992895,1.8480685205806413,1,0.9265693994956903,0.06188006436038857,0.8829556913187703
2.1180567328041606,-2.880591097559533,-0.6782335228935761,1,0.41027329717007094,0.03581222535255248,0.14478358092032187
-1.2333066475824859,1.1941644842525703,2.0021833019641573,1,0.44580226397489237,0.8873410784075196,0.633701327633798
-0.6894136283884484,-1.4825291666622773,-0.7103446921036483,0,0.12914999793068035,0.550043737793905,0.1790172381608587
2.106820029101142,-2.7570730540301733,1.9448964311993482,1,0.6211781281335169,0.10468266159018602,0.24459914385777817
-1.098467969062334,-0.582662526260215,-1.0000931090085483,0,0.1270689984846904,0.7844365081180377,0.27370327740484085
-1.983043519883445,2.61130686102525,-0.3592037722939807,1,0.45600362235922753,0.5757057532710659,0.6752892881549929
0.3408075747501007,-2.929409433798014,0.6929305160559451,0,0.31963426697164465,0.2692210937812643,0.11829928033128125
2.616928644964686,0.5273141515786901,-2.578274315820488,0,0.560097590987602,0.19304491195780837,0.718998907719032
1.1761787800498382,0.008378871571945723,2.689242370892787,1,0.8998606902815449,0.6376020206383711,0.6950839108986081
0.4203670205361898,2.2403049862262847,0.4416347167428194,1,0.8658538473824312,0.31392733037939546,0.7418093739139898
-2.4169410373753886,-2.495989712876246,0.04692008814481374,0,0.09724384518811556,0.732609029709891,0.09430286339192347
0.6900433601950184,1.089156179319902,2.036363826719473,1,0.8919044232343742,0.6523402927660353,0.756315994277627
2.94032310062558,1.0806581905996637,2.1945763793809654,1,0.8173614185137802,0.22807942326218658,0.7350532403834322
-2.1594959085808556,1.0144801011736995,0.13356242717409605,1,0.3317708932633132,0.9208889219998236,0.4453382837869957
0.1099779141824202,2.654006969610222,2.563573954761824,1,0.905570379123909,0.3174129932434585,0.8864599315195016
2.2642384315677324,1.938525174041283,-2.611573403541116,0,0.7923856939567079,0.06935290164516364,0.8701328552720597
1.4446117065252269,-2.748163642538964,-2.3206452464926945,0,0.35842619132414255,0.05862040548723208,0.28673095185968434
1.1820944459716074,-0.17350289577292077,0.5807293800866411,1,0.8139025350725815,0.6502984826020131,0.46207986223689546
1.2149045039226554,-0.6122816627919994,-0.8756048292384979,1,0.6978713619843135,0.37110744631466136,0.4224556412447382
-0.843053092681469,-1.1391166734551876,-0.2146490028648067,0,0.14754725920159792,0.736414564419715,0.18684131487584046
-1.2384489344130398,-0.29197964907541607,-1.0315246926170007,0,0.13315274524610965,0.8233647156808404,0.3078787784434629
1.8561669328710817,-0.6948348904441355,-0.5716481313303863,1,0.7151285309850479,0.28052570249653674,0.3885091659908792
1.8606803680750845,-0.4059966007280078,1.9358780828777968,1,0.8599868396956254,0.5665461036206771,0.5788917766079467
2.2024339114806217,2.8755711936518544,0.5608571991258282,1,0.9435681689050622,0.07260149122923376,0.8354515969339142
2.479443315338828,-2.468202151502515,2.9840672957009895,1,0.6418353949878927,0.056690038210032795,0.3227447051221047
0.06805439316562678,2.533385219032379,1.7212751869257774,1,0.8681933053160514,0.41407073565166164,0.8350966167162305
0.009097768123197625,-0.11857971917384003,-1.35800247538904,0,0.3886372391447555,0.6224789989496124,0.45683160387081606
1.789771073800651,0.742453472997247,-1.4139292936398227,1,0.8039597111342184,0.22460181283229116,0.6808776627522748
0.8997835846665909,1.9810977997061627,-0.9846103792979575,1,0.8664529934530648,0.14410204560261336,0.7730022334912455
1.2118012635462199,-0.837221825104467,2.059556883886456,1,0.8325253533243575,0.6111228766207013,0.5267078086584649
1.7747560166166068,-0.41746855147219897,-2.8362740960966066,0,0.6009180624844471,0.36975201026451937,0.6497870696075589
2.340032050905398,-0.5428891183277162,-1.6189123267724537,1,0.5794571869014061,0.1759905279604363,0.4964231227177162
-0.9720290588907852,-0.7516138647854409,2.429510522065602,1,0.2919359066408215,0.8920367669484077,0.40062077324206063
-0.7465022841603357,2.5531759298813697,0.8393786164995118,1,0.6247568963796349,0.529958315652263,0.716326616420627
-2.436108360954786,1.973579347158072,-1.6389174269936615,0,0.38284513025349176,0.6857090009073937,0.7228856441346516
0.46968084597704385,-2.3460000608221434,-1.685130190604518,0,0.2690128927574544,0.12886761584881387,0.2369423202794346
-2.7843463572195475,-2.3512598851374236,2.1757086105565833,0,0.25971296859049675,0.8764174107640256,0.21989313217981868
-0.20641189120523906,-0.4327829108820529,2.3625450496622786,1,0.546105684643423,0.8514872197221829,0.5035354530363856
0.25586780824545974,-2.408055739603146,-1.4632134542273083,0,0.22039528757587137,0.14282517932621838,0.19824695240436374
-1.2807524872302936,0.7145585716267178,-0.47693785154080626,1,0.2273827462694955,0.8333722928852398,0.40161034970655773
0.5449995634140645,-2.1378503564295963,2.0075744317699034,1,0.5771229190529025,0.39024189542211135,0.29653935229112466
-2.8169985003657034,0.13423958380080636,1.6260446316593127,0,0.5191273971501906,0.9843534534440859,0.4951461995318914
-2.7759108675047135,-2.9566803179776935,1.8834966393965065,0,0.1900523133916552,0.8464779942921397,0.14638650829681846
1.9356033639579495,-1.1004219095241197,0.11038914472781247,1,0.7076907156478596,0.283431567042068,0.3135589977701031
-0.8388561515324229,1.0631443420359323,2.469294289831039,1,0.5390557072762305,0.8442750527291107,0.6751411752941006
-2.237636924088691,-0.09576635863290939,-1.0442907362733884,0,0.17655854350864877,0.9152439249378952,0.34909279307335694
0.13345956032882622,2.8696169159939284,-2.0599671939148916,0,0.7342734807710268,0.13232410314892543,0.8818370535653146
1.619961318591665,2.2446227763972644,1.2523939953891885,1,0.9524029330972403,0.20102022070124168,0.8305831116375568
-1.705073835018941,-0.845575325741093,0.23612649604137825,0,0.13723504496706715,0.9108271841852923,0.1994284739882013
0.7373428549140018,-2.727080751166352,2.127514612856886,0,0.5703303217513211,0.2508743951122426,0.2491561914082428
-2.487915210037392,2.073757800690113,-2.5130445052517105,0,0.34769212951364104,0.7311225951272103,0.8030475723532791
-2.689909672988354,2.467405861888029,2.062154420628401,1,0.7681026789128237,0.8619587574237758,0.8237209034820366
0.1881277894088882,1.9237643605142205,-1.2402320807470668,0,0.7048169862418071,0.2266324220251102,0.7439837446578131
0.24381072966063932,-2.232300354481411,0.9291340030090982,0,0.38336106623141875,0.40819252443516163,0.17623263808729317
0.8245794089892393,2.9874908064737262,-2.7592272655304653,0,0.8541303879958304,0.10845461717331467,0.9275796780151664
1.3565480023359697,-1.448494670683357,0.6574877778216042,1,0.7188377420313549,0.3749472227875418,0.29442116769402293
2.855112476775208,1.3452294768502204,1.303630135124016,1,0.8157132922521297,0.2074223726343327,0.6874380693921432
0.09780208980717209,2.4482092580143293,-0.7874987129662783,1,0.7566360660881517,0.1828493948430211,0.7604547178955158
-1.0622611623525242,-1.5858773140157434,-1.7075357684271586,0,0.06815465549947079,0.5345066664195137,0.22569995032679444
1.7711171686122222,2.4495513280623964,0.22578405962127013,1,0.9406162743103036,0.10118575918033607,0.7980937307995437
-1.3750064924275547,-1.1431105248307982,1.999144826613879,0,0.1910575177280266,0.9033035241445331,0.2951420548064365
-0.36617147576618336,2.858479334304337,-1.058715850220095,0,0.6398146772280873,0.18701859563637183,0.7903231377861943
-2.529261711946404,-1.3124398777171524,-1.4851842148723227,0,0.1230412939061308,0.83652049332584,0.2572849385826458
-2.847895539507255,2.720614948547011,-1.326388148173874,0,0.6290518826696965,0.6233735608569609,0.8014816761028698
2.7758904880675503,-2.6787320946439506,2.6947929174999867,1,0.5013698720271473,0.047789056841909254,0.26633844738234325
2.015880723073235,1.255632070018878,-0.844338505412642,1,0.8492045727939523,0.14628885984408374,0.6861747471272689
1.1758452365621874,0.19266680302202221,-2.978374560670277,0,0.642755529330861,0.5308045034786251,0.7267431604723155
-0.5462823335143807,-0.13273753726361637,1.6900872477577185,1,0.41614620980726585,0.9106416781976607,0.44325943899230064
-1.9602340795749253,-1.65903411446496,1.1956487720123405,0,0.13487723400210413,0.8922330907409874,0.17527780107378274
-2.061377743973484,1.2335747386589517,-2.2285904123821867,0,0.2018328151071929,0.816408547439361,0.6666356401742676
-1.498542611012428,-1.8551430513221574,2.909425494809475,0,0.1749664038302965,0.7356068258357341,0.2639657792882582
0.29535998823672305,0.3170507759086094,0.6483737118306672,1,0.6877591598479096,0.7902820690772946,0.4770488141623878
1.2875755362003742,-1.4805278217584952,0.004676945643608654,1,0.6684936050434866,0.2852409111406452,0.26810721541924915
0.9611842603063874,2.7337282786881367,-0.7066843942626537,1,0.9156503645832332,0.08907089432135681,0.8303240464784845
-1.320396618324343,-2.828212836986083,2.3920365333818276,0,0.10435779840457647,0.596687185696381,0.1520699666233437
2.729191683979165,-1.8016303193325807,-1.5362191114886203,1,0.31854517517236774,0.040797464815141515,0.28131678387434655
1.4273815001746115,-1.5461363616753137,-1.2853865986805888,1,0.5807654440168257,0.1438100772404686,0.33792303506244886
0.32612431506840434,-0.5155930453931017,-2.2655351598805984,0,0.3877224348615951,0.5610307791821787,0.5346658451652123
0.6703244774061137,-1.6036185487796788,1.55471457350556,1,0.6448472590194884,0.5310276567705251,0.3270153202352414
-0.48239962543326076,-0.05190545838728866,0.5732956824351199,1,0.36590536538356483,0.876963701791243,0.3459782332411667
-1.5136140629930552,2.2347931395512344,0.6543970155269898,1,0.4541708327960837,0.7104240902288291,0.6329334508148745
-0.8641639280924305,1.2723805284550247,-1.6891774138832183,0,0.266707524101614,0.5863842805352294,0.626740720122587
1.547076662786215,0.47977188321066633,0.9070103347625031,1,0.8820062093897298,0.5934448462581456,0.5938004872334314
-2.913639068221465,-2.465980932103922,1.5927506834811833,0,0.2508391071159047,0.8903531185720355,0.17378931552706312
-2.303564156958503,1.1639526503356539,-0.8526688156458642,0,0.3124236041092408,0.8569982606568411,0.5180055603117981
-2.7239841478694835,-2.0015142941343607,1.8080828637702737,0,0.2560319686407776,0.9136110320198204,0.22346172250003807
-2.755627186086179,1.7182043157701878,-0.9072564688078746,0,0.505560916753782,0.8140857589343544,0.6393136315223048
2.132763504066043,-1.4996594489390809,1.5488307690557264,1,0.727927386756627,0.28473638253849565,0.3607076301525725
1.2219471562801418,-0.4977076300745944,-2.797619355253686,0,0.5796923137341967,0.4602829029950107,0.6336698721263171
-0.15495702547604884,-0.8971787860924323,0.3069876088419159,0,0.3570939773276896,0.7472650156340126,0.2541373821775857
-2.4129950360939914,2.1528834880491408,2.8171593638393198,1,0.7156231920655061,0.8166500316835142,0.8174724786999322
-0.050304749299005636,-2.240733247719551,2.8874676040943443,0,0.41834971866037673,0.37077325020418267,0.2930510669534202
-0.1591693753166057,0.39386929430873163,-1.3094845299495563,1,0.393253194020647,0.6362712245488692,0.5109353317474905
-1.960788780539909,-2.1476303433416266,-0.351605453517867,0,0.07131488225095792,0.662196869096561,0.10640943176384535
-0.39689010457216156,1.2287750167931204,-2.6221325520802017,0,0.32036817250562893,0.5920615810972404,0.7343269298949194
-0.6089715936157596,2.4304687667668867,2.2400478456275987,1,0.7367631742658274,0.5317131391064654,0.8234169133267648
0.6951005883132986,-0.3923540767964795,0.41143291884128486,1,0.7084662985206859,0.6969211956643171,0.3923364196280554
0.810561905205863,-0.07144643841014453,-0.6893959263568981,0,0.6994057594260841,0.5257868999425764,0.4653523028467504
-2.728175941367733,2.5645370188965737,-2.3233766490650813,0,0.49566128765528167,0.6605854614220008,0.8481015581771059
-0.7523243122411727,0.12594833189614274,2.680603712981335,1,0.4606189608872643,0.891265967728327,0.5621864627539744
0.7551594942854183,-0.07440937170263417,0.18131428692596252,0,0.7398707378671661,0.6723377826180452,0.4348014806685961
0.01881755148052644,0.4699746162258247,-1.3024324255025768,0,0.46816368905190603,0.5938483799329923,0.5391532308650668
2.1389390471299334,1.1353784181777113,-0.8987092192109429,1,0.8267016365367992,0.14769806739805416,0.6697550689210535
0.9521617897136698,-2.358699749477812,-1.375816914467114,0,0.408519678192737,0.0911961296868502,0.23393484534245906
-2.022393437511422,1.9266631664490959,0.6108588531418837,1,0.44941424587050605,0.8322043237627269,0.5954445694201451
-2.5765875155974207,-0.3869698352804445,2.5797814546830597,0,0.4445587280817508,0.971953446066368,0.49419922418248563
0.8545156692378937,-2.5659089406150866,2.1401628199593867,1,0.6202180592826707,0.24962243119167402,0.2752205014552971
-2.8409321367502693,1.717096015189279,-0.237714747444135,0,0.5849207364678378,0.8735782428049365,0.6048841219371539
0.5146534876407798,-0.7383001698823675,1.9589961738060468,1,0.7225004328322816,0.7546795635332578,0.48579747412718427
2.6413814485497458,-2.3977950294296764,-0.4613671123420211,1,0.3502611868793117,0.03530426055522264,0.1551777477544204
0.45284506725527374,0.8026742372595033,-1.4861571554481718,0,0.6483463669337117,0.4437325430073111,0.6489314783115032
-0.6709804427608685,2.2807881206018497,2.9004906915985673,1,0.7460982658961497,0.48044305715742874,0.8327590730249896
0.8597293106541191,2.3265210564839176,-1.176674592175069,0,0.875092599445413,0.10366990299460008,0.8186132565963111
-0.2504826570509002,2.745980848853839,-1.0576546140785497,0,0.6646056081847806,0.17993741351318054,0.7863363375401976
0.2737007358956096,2.2062327586001285,2.938157206719133,1,0.916062178376278,0.3122179311968002,0.8723108783356237
2.648788852659151,-2.9871544839271484,-2.1964350410060707,0,0.19110271687194139,0.020388974613917633,0.2124456892859452
-0.6833841731953543,-0.7185530015196586,1.5632039280581704,0,0.3020728296064575,0.8956685944273742,0.33459026336226405
2.7671433829434857,1.9112554794330183,2.6148765508963585,1,0.9079394123801221,0.09427407300623857,0.8488087830015986
2.4321038517363824,-0.8024819640091545,0.07076996565251203,1,0.645006067675803,0.25687465091994205,0.32746803409018993
-1.8252531912642214,0.6092910382782368,-2.98486942978308,0,0.11481083119639325,0.9117353112683696,0.6159342778477647
-2.5838321947490073,0.6379016842471921,-0.7496463353213625,0,0.3318401275390827,0.9278495657134646,0.4514190224982691
-2.39533199173544,-0.8098481757670619,-2.3305860456910374,0,0.10693417284275239,0.9034630221970348,0.3981729656625775
-2.890669046090702,2.4268435636877257,-0.5028740343978253,0,0.6659917186674568,0.7443808094413534,0.7147743163281302
-2.43334223546443,0.019370072316705844,1.7401605698537086,0,0.39078213763138553,0.9788850554707716,0.45901653568480033
1.0980406404981409,-0.21129476437499495,-0.3677307066971971,1,0.7538975821126678,0.5108059593640327,0.44097084144603704
-2.572868109238626,2.9850824739713753,-0.4084492719244648,1,0.6369544300754786,0.6444957723234922,0.7533867588976085
-1.0861462182374322,-0.03899781556429982,0.3407368615130797,0,0.22364761160074262,0.9090369009626766,0.2997290914623286
2.069251865816727,-1.9296104884285137,0.49014350848608146,1,0.6223937069370771,0.14839164251939763,0.22312103900985442
-2.860368385585045,0.07841653718062824,2.1377778527938283,0,0.5656791697886485,0.9832929336140546,0.5509676790066639
1.886810895533615,1.8841004131195804,-1.1498673646262911,1,0.8831714977234397,0.0745928039018007,0.7869015065423333
-1.3088713513596004,1.6611619613896886,1.9300275862080962,1,0.4901885809199977,0.831195388654881,0.6869970074408
-2.2910110342700625,1.731490590650826,0.3956024921522836,1,0.46429334543979706,0.8710819919579509,0.5687729135922782
1.180422992184904,1.2481427039874706,-1.1968227016971182,1,0.8391848085778107,0.22873722146068273,0.7183180423632572
0.7736570806793042,-1.4746930255998707,-1.2292437359635373,1,0.48550766512006743,0.23806016273835667,0.315876184524423
2.264832081162318,2.172504515041389,-0.833174897365653,1,0.8796697004288435,0.04701302009540959,0.7815473224943733
1.4104262628233144,2.3606607922575904,0.7361594557198528,1,0.9469459403668166,0.18084430858013792,0.8085688174854575
1.8208855823090913,-1.8350838202887056,-1.6151296118403051,1,0.5128108730180816,0.0780251629494516,0.33373621151829025
-1.307792564572161,-2.2172661806916363,2.522001370033605,0,0.14179595534025563,0.6747787106120428,0.2125626340087707
-1.935362737321663,2.853629811534672,0.4494755050674022,1,0.539974475056091,0.6685969549014772,0.7085039030707482
1.5036885098451496,2.209943781902208,2.5200946619760405,1,0.9663536070404153,0.1807629603373838,0.8939339136434479
1.8410084356035838,2.35941688325968,-2.721573848525072,0,0.859217716507062,0.06852893234807508,0.9053106392407224
2.94303085200404,2.3182583077463708,-0.9443317772311595,1,0.7634555950444342,0.023265714353624838,0.7643569356779412
-0.5242939385314411,0.2501209442023704,-2.8631540358742615,0,0.1847052187555171,0.8005436790210211,0.6060108895728993
-0.7678914852433012,0.8784104199947982,-1.3664891094121812,0,0.2664573646751173,0.6670610723693047,0.5368714074319376
1.6584777644519813,0.27217711280184975,2.172038833611529,1,0.90737005310676,0.6001971568635498,0.6994338600072981
-0.9551787584818929,-2.692761904858026,-2.780341704946795,0,0.03213617886819284,0.3625266740320324,0.18626017126724734
2.584543953621388,1.473018512116636,-0.3831174005055309,1,0.8044903310671818,0.09866397638926724,0.6528368825072928
2.150476511058071,0.03199220001528147,-2.2945975771606335,0,0.6416593850597998,0.2600899813492746,0.6648468943854867
-0.4260358357498899,0.8862544487413784,-0.4989560444377936,0,0.41910319189874257,0.6823633319480052,0.4818593857627849
1.5052264067489842,0.0158388298532115,2.033109505586264,1,0.892316916995693,0.6507152329710625,0.652864304256856
1.5272572445080943,-0.049132066065264546,0.7384262004151148,1,0.8449513761769448,0.6101478006413744,0.5000943177528496
-2.3812567869844043,-1.969265343133399,1.4205380719885392,0,0.16907199397946834,0.8939281622477174,0.17769074594064924
2.4153174400774002,-1.3277177091531063,-0.9053753073025144,1,0.5151610141929833,0.10028304794884932,0.3016000653294107
0.031514234687143095,-2.0468838483362655,2.666386170060849,0,0.4560480980462177,0.4366147846978424,0.31627848913106804
1.9587447966464495,-1.8260022262479454,1.255572562677001,1,0.7010287066105413,0.23068976945428335,0.29310709707248955
-1.0797023938163295,2.8378642825218297,-0.46920708429281444,1,0.48886278485468687,0.3548386687676865,0.7117765573204128
2.373139370977203,-2.0813193253668096,-0.4412111986376708,1,0.46742445347997585,0.058206098042169904,0.1942074286810987
-0.6647899275950211,-1.3843774541687541,2.5121050676597854,0,0.2965256020557309,0.7624850980749126,0.33777634921130756
-2.93497409111821,0.5435379464315098,0.4584281606123506,0,0.5253707112542801,0.9755129217625389,0.4490988282594129
2.4322918585155815,0.6610714574198511,1.2382752594182502,1,0.8427685376822107,0.4165442330219124,0.621036674326058
-2.4522799392831987,-2.0761552215370256,-0.4977886529209754,0,0.10513527991982576,0.7401290759139019,0.12571200543527633
-1.0841181744575108,1.7623045547112737,-1.6578434114117153,0,0.28048891066684567,0.4853884526684381,0.678588963602625
2.7003718023048293,1.7112172074769498,1.3413557519665114,1,0.8697308273437769,0.16156986121242278,0.7472183577013286
2.7036428816253366,-1.5760937747766535,0.6469426328483268,1,0.5105387735141667,0.14838220081500364,0.23595456512459675
0.44062732873971644,-1.2680021839472373,0.008057282548675992,1,0.5020441210357246,0.5027410348451117,0.2515839521712594
0.7910232730187956,2.6279271927569816,0.744125639966783,1,0.9311064453416108,0.23079501666246327,0.8165798619255127
-0.30932686813008115,1.9540286758768683,-1.7502864836145982,0,0.49882552988489565,0.2911103952347773,0.7576638799978495
-1.2407353698116128,1.186782198375143,1.7636322391917378,1,0.4264003188753922,0.8937078869333439,0.605749917472497
-1.0280127277805042,-2.506600670936397,2.6889768301218346,0,0.15045733547414816,0.5405214487996516,0.19832169573552336
1.0351107364622303,-0.4904155145845457,2.3466188650062163,1,0.8517832330986496,0.6748420857026592,0.5986564219350571
1.51424717662608,0.35581123246096213,-1.0713855281578972,1,0.7947978544496737,0.331575898093824,0.5922786297170016
1.7494742623550916,-1.8755322720973384,-0.5639653603075447,1,0.5912568443144139,0.10585401335170523,0.23971209041412586
1.7377088567673233,-0.31064050735065285,1.8504137987853673,1,0.8674913376617255,0.6047295814070689,0.5856595477869342
-2.452763381707858,0.6061552649321396,0.5707027849476232,0,0.38244996193882486,0.9653295093702859,0.4227922981447361
-0.03347817178451118,-1.0357399193076047,0.28748666205989526,0,0.3818196565863081,0.6978604311212838,0.24706778151809325
-2.6546474399001343,1.6856689137029228,2.5598518052006707,1,0.71277449623505,0.9145741106294307,0.7759091142738908
0.29717329394241343,2.0426974898328325,0.21614976586230483,1,0.8213354423931883,0.34680663933334765,0.7014852859154871
-0.3508169917597379,-1.0583431833955754,0.08963207752385927,0,0.2654601141206682,0.7174184623638351,0.21917768985717087
2.3262250965497984,2.031942926954743,-2.747888452401842,0,0.7830570936873211,0.06516310439514245,0.877836926785363
-0.8945099246875277,-2.37854060338191,-2.583498248459174,0,0.0417194383020179,0.37229878229455826,0.2116593021275027
-2.297597901434365,2.026374591735938,-2.9554781527160987,0,0.2700416187614726,0.765050452260506,0.8034927226977299
-2.142049907682985,-2.0834974099943,2.4794653547018015,0,0.17368326089609137,0.8256862112025122,0.2328576773730915
1.569063790304833,-2.5024370849416435,-0.5496800398937962,1,0.5209565141745368,0.0701713086866279,0.17831452391517216
0.7093083798975663,0.8506524266460671,-0.18863174319952503,1,0.7934258015898167,0.5231544661916764,0.5694933269727556
-2.3932639432632588,-0.16837580546823405,2.0723216855547726,0,0.3815171135012728,0.9761407831709122,0.4668463030051663
-2.4953591633100154,2.4473436024769963,0.6554778622546675,1,0.6264552810375243,0.817682250233764,0.6965989503816395
1.2058147887547204,-0.8208648234549045,0.6570095783434864,1,0.7663591806918701,0.5697376199328466,0.3740741577133897
-2.563421961814839,-1.277086419374228,-1.2207934238711253,0,0.13889232692982484,0.8507611861467868,0.2393403776642964
1.9311603557421373,0.0044094368651901306,2.0034502435471158,1,0.8815188570553457,0.5721330768667725,0.6425832464592786
1.237453362938977,-0.26432288538803217,-2.005020143763037,0,0.6645780880074692,0.38540306684846903,0.6058118140845226
-2.5119073161486014,-0.9334317226968705,-2.6811024469623126,0,0.10392242281329611,0.9177793243953478,0.41394079975473963
-2.4909737154888485,1.1624477921899716,-1.8503798548888062,0,0.2926789096825521,0.8577190150661573,0.6440932498510868
2.919837471007053,1.5573710034834498,-1.3935766873526119,1,0.6660838704545982,0.04703005806514585,0.7179372782776544
-0.7543752254632778,2.1179038141808197,-1.3061336528747596,0,0.41092604354843854,0.332613250869376,0.7039162485468444
-0.7761471175986543,2.837139628262057,1.0230815917126055,1,0.6625528856009042,0.5184182026541292,0.7616416417280402
1.876797403545016,-1.4000628472049732,-1.693052476028139,1,0.555364947267648,0.12001090670565161,0.4018786571922962
2.6834914643031524,1.296560894939769,1.0599498269699072,1,0.8361195224949959,0.22949086555689224,0.6704844491506988
2.9160063829372254,-0.6344505870255288,-2.4532069605972016,0,0.3279061263806228,0.1405134376061985,0.5237164551970107
1.5202691115536497,1.062491831706648,-2.116785233412546,1,0.8012771900884694,0.2261098370661191,0.7852649689793016
-0.7424424868145056,-0.14410985790467823,0.05292869094596986,0,0.2553439984962231,0.8603917755781787,0.29813355990618895
-2.4989956998079874,2.96263861660759,2.5313748154598557,1,0.7927886051516884,0.7719741846893896,0.8751884462612116
1.662881495564621,1.3734128147444995,2.157405532866684,1,0.9441477470336344,0.3747237819323275,0.8174436520417855
0.3504254984148303,2.7149478026059466,2.8125206546568187,1,0.9379744501050695,0.2411186912275188,0.9037374034093548
-0.4546679445181425,2.009817296887114,0.9028743916690254,1,0.6495416156682751,0.5994676495550997,0.6727274288223539
2.438126310568416,2.4174060669802264,1.0548891984965518,1,0.9238234506426319,0.09617594469471555,0.8119189587514687
-2.3328151061630917,1.8865151832880498,0.7501379935889521,1,0.5207713781078153,0.8777045330786044,0.6169764096194053
-0.0442493742548451,-0.24504521774453192,0.7369135371491837,1,0.5080490668162131,0.841569813420423,0.3693528239113553
-2.931878131395486,-1.4892692799186937,-2.117277929594492,0,0.1555013076782726,0.8635596953816511,0.3280557963546504
-0.18803614803524216,-0.7780789472968666,0.26243373698357164,0,0.3564732521932979,0.766158770565335,0.26415176260118717
-2.662180345908976,-2.8785826041602975,-0.6835923992896458,0,0.08816445722267348,0.6292271073843476,0.09118036261520952
-2.2870925023915687,0.14395900478800305,-0.3447767053362396,0,0.23815566655471876,0.9416223055692652,0.33494638322467185
-2.2948425193373705,0.03034680162245218,0.14160343835542388,0,0.25615633467786847,0.9582781448971395,0.3150876455730113
0.8952618126963814,0.15150278898292946,-2.22962296918649,0,0.6404743934157826,0.47914891227932715,0.6702123292348883
1.4762692755925393,2.8441873498323833,-0.8430735968872809,1,0.9347757337331886,0.054628653901993965,0.8547237475818423
0.500212590582958,2.468724020729036,-2.6193026347403787,0,0.7627813908780972,0.15606263373478446,0.8915254856824343
2.7730352908472513,-2.029723330019352,2.878008782534394,1,0.5960289538454758,0.07125082673724822,0.3564066417137567
-0.7507765228577759,-0.7867048706646651,-2.2888318270792434,0,0.10877532159909044,0.7152193627601767,0.3974857159718454
-1.2857274823088356,-0.4562629232204287,-1.448851568730273,0,0.10887828912859139,0.8039278131026889,0.32773746879798415
2.2115947691367612,-0.8368024928901132,2.3477575602203835,1,0.8158310938287157,0.38548426173629635,0.542180485627819
-1.6584249688832842,1.7909757816234784,-0.10373972256514907,1,0.3475380594897135,0.729515664137978,0.5445833549871677
2.779335236643668,0.14422601920552136,-2.1861767908762184,1,0.4869627151191249,0.16693391325617024,0.6264283648521816
-2.927073151861102,0.43259890182975,-0.6946167717639065,0,0.4227724334534248,0.9518024776001859,0.4477560397203858
2.8192729602458346,2.118081353927553,-2.304792034851685,1,0.6990450361125898,0.03230747003218588,0.849728952545754
-2.7410405282965433,1.8355689204921521,-1.7987040174929894,0,0.4485040011487552,0.7679738828629771,0.742373290745778
2.3468586821884267,-2.206730863078202,-2.68782091830093,0,0.30170418880631794,0.05229940794044307,0.35682588183681957
0.16620665451779892,1.2834875045018057,-0.3706350327054002,1,0.6854035232364565,0.48838617682727825,0.591512314378819
2.9577887767158018,-0.38738322658778657,1.8398167303515587,1,0.6530355944702555,0.35885714635242383,0.4933933697704015
-2.557220611587607,-1.2321065816249972,0.5158150721993731,0,0.2160522027468546,0.9421193691195691,0.1986298775311917
0.3231257064079247,-2.699887074586882,0.6380718329076704,0,0.33576512938398295,0.2836605674944693,0.13072742578844923
2.8158152137145933,-0.07650263792729417,-1.796495819500558,1,0.47573609403481254,0.14951519542320688,0.5483511016915622
0.1385870650208929,-0.8673799156528119,-0.9366369404858013,0,0.3757879195884197,0.5253341969759301,0.31833790099513243
0.7763918288115752,-1.490921761941595,2.0714526230449923,1,0.716474284426705,0.5221658464171958,0.40751001452579544
1.1744921339077035,1.1680303775817453,-2.4728628940409125,0,0.7730996805990813,0.28838733797547206,0.8118568175993524
-0.27275361139336063,1.616912323893522,2.1475839220112025,1,0.740516525109787,0.679099482498374,0.7567716262901453
0.7653484805043806,-1.5312628858234512,-0.0978598424112862,1,0.5607467177579105,0.3467754214455025,0.24245805790120067
0.5058858715386014,-2.7033153799239162,2.0228845879507036,1,0.4955204949124397,0.2970022782234261,0.2297481669715516
2.4069480629459337,2.09251620339141,-1.091961483633598,1,0.8486632330272756,0.04129359652285163,0.784699551294689
-2.727321717951253,-2.94024155277418,-0.9669422905018754,0,0.08596037965285125,0.6058481949899351,0.09893952572167172
-1.314220862446618,2.622674963528832,1.5096292099388569,1,0.5776976742921082,0.669967896609075,0.7606296441039995
2.7024689044593524,0.7657192438962355,1.709977040353321,1,0.8225284127832063,0.3535014771596528,0.6679340949261806
2.341582703345498,-1.0689201887920783,-1.6221319320591194,1,0.5137327605326986,0.1197227140450348,0.418544707498387
-0.2660594832857224,-1.5211325425395827,2.8372279489314334,0,0.4246299495517309,0.6182673866217885,0.367993732048429
0.7207955868092206,-2.9459660144131483,-2.4930593745310263,0,0.22601923166677937,0.10187520713424425,0.24878528859229787
-1.335712902113204,-1.587171497934737,-2.588982221387215,0,0.046131809010652745,0.664069688072577,0.2858303115877064
-1.8712730416574321,-2.1736301908971534,0.5730252917166165,0,0.08724870183611552,0.7678422343224919,0.10847743149356961
-0.21780957036010706,0.6729973243388736,1.3364446066297289,1,0.6018776569417777,0.8573511347053078,0.550144752305669
-0.8798866318436831,-2.0007264684371924,2.7653167753498433,0,0.2096944513426183,0.6132424009673063,0.26044002726839444
0.5019366711052324,0.171779025219716,-0.5703253152068308,1,0.6539569329354924,0.5993734598630867,0.46870456815689565
-2.5335921782100908,0.5406985340668249,-2.848251546062201,0,0.19139559957364904,0.9454883118532177,0.6398169447190132
2.8463688459969987,-1.2117498099185129,0.617378036678442,1,0.5039422882244151,0.18996962151631372,0.26534544584315717
2.917264466877617,-2.7896103058876878,-1.2618238764073688,1,0.19159565576449594,0.015873654642127193,0.1497165959922357
1.1889702841184704,-2.776476716314823,-0.40231727282758634,1,0.47079456197422415,0.08737138287471509,0.14744659775363098
0.21657819806472212,-2.8419160068364944,-0.06918310650038872,0,0.2461264168019239,0.20291558949846164,0.10735978867018756
-1.1428343022820335,1.4347480028192772,-2.612924335571797,0,0.19290812809938424,0.6734770171034796,0.7168039961425635
1.8827701182416918,-1.0919417711142112,-0.08410929261538325,1,0.7019060203691436,0.2665675610955583,0.3158941053604953
1.1083870353232754,1.7778011158059819,-0.4420819991741114,1,0.8907812762329136,0.19265957261467767,0.7256655676290169
-2.024298363930652,-0.4096030569429052,1.2752655917195597,0,0.23674666991633317,0.9673850821510562,0.32061368882994606
2.465563106963055,-0.2820113950202172,0.8739954672740677,1,0.7426416360192358,0.42971258911835103,0.44033309694615513
1.9352234575390135,0.07729561505744265,-1.8887056910966338,1,0.7054793206120035,0.26567353929678555,0.6402384630526919
2.6987994797515444,1.2781887382506234,-1.763166490737618,1,0.6797976009373685,0.07585906808135487,0.7376697744125299
1.3543170503301596,-1.3589828050217576,-1.4939629273537605,1,0.5835367738854754,0.17812414672865606,0.38624956030810753
0.6804911756147392,-2.2704759027988386,-1.926297358216936,0,0.31661651808497243,0.1220251701833335,0.28159056398020355
-0.49054178225628675,0.336344011148769,0.9432791980108028,1,0.43647022488141135,0.890107143425437,0.4304038880485455
2.5963709001240796,-1.0381342605435644,2.9665810752016233,1,0.7592950906918862,0.206554760246568,0.5192217191545027
2.19638333700245,-0.3450521179917754,0.9126500430956197,1,0.7887151884167013,0.4814964323498996,0.4529869974166214
-2.7286879793628636,0.8816802500238321,0.6400892771477471,0,0.507739266418239,0.966562358840631,0.4918702911931917
-2.841798153016488,-0.0352455531523761,-0.5404323998935654,0,0.3491589207753571,0.9574069922756382,0.36169381845626764
-0.7412197987317022,0.7216729026050572,-1.1245184468414358,0,0.2710500918616809,0.7031567983795284,0.48678382573985984
1.8633199846909978,0.26520001268176685,2.466442541438875,1,0.9096041822334208,0.5262015465787353,0.717568880598433
2.9236567758896665,1.4387782316165953,2.814011244852918,1,0.8685175798119601,0.12392928485142793,0.8058340317913306
-2.097498653378831,1.2356197062697198,-0.019342946473633216,1,0.3352137392058054,0.8868722127636739,0.47394302114941167
0.5647842921128108,0.2051393508517152,-1.2587970269606552,0,0.6289654159890101,0.514197797542438,0.545795306372537
-0.7146548602138711,1.0734181251582413,1.620733246018606,1,0.5099721497062497,0.863350197758064,0.6003362275454086
2.819486386887619,2.2413576136356763,-2.2052592547987295,1,0.7178757317058669,0.027516340979562758,0.8541855070011783
2.0527135388142526,-0.40637227327098824,1.593529425862089,1,0.8325815263040757,0.5398953337713924,0.5304585877080604
2.0299722282668267,-0.5234215635072381,1.9136902458680325,1,0.8398380207419653,0.5186435917730995,0.5529559622273393
-0.18784104123017809,1.585473725114281,-2.250576332236996,0,0.45945334186207987,0.39849566216745724,0.7669019663898186
-0.5110829859740091,0.49532302225196423,2.8611688127793826,1,0.5920216169954179,0.8400202456120507,0.6415307124281299
-1.3595575684157626,-2.5739593186644685,2.9130737423308704,0,0.1324215625640583,0.5583355741267733,0.1902351630856603
-2.6617470200944373,2.352672094146488,2.6203168759641073,1,0.780737225184411,0.8365055899935682,0.8403102958059688
2.188334257530319,-2.815301386574159,-0.023791143562414074,1,0.45218946383001435,0.05195594701628536,0.13436344668017208
1.8774060547804652,1.4903781372584586,-1.5235551463390293,1,0.8478924566017438,0.10863638660496121,0.7776389634576445
2.998306039716784,1.5527648562258776,0.4920556852914775,1,0.7573479657803727,0.11442666278949623,0.6336937057303518
2.9798210224434323,2.7186665116915822,-0.48039696917138563,1,0.8110449930050279,0.0218466485452008,0.7776840762646446
0.3325902336157647,-2.6751935495860755,-1.7643081316968174,0,0.2014670157097158,0.11661959446999696,0.20127155540506853
1.613924491083063,0.5811411647069455,-0.4579415422929145,1,0.8391332737093445,0.35489127210944366,0.5744010867972774
2.668594379294568,-0.43295657623768236,0.9833390140655434,1,0.6817573225525027,0.3862853985383403,0.41224940463178505
2.097884344064469,-1.0162022708427478,-2.574520135284054,0,0.5039889393606953,0.19428480966461378,0.5393503061442956
-1.515911389540814,-2.458088638205562,-0.9994919913239011,0,0.04623707290529357,0.4239580573685799,0.10483543684779559
-0.2967351881394391,0.3759247180278553,-2.8932306599230486,0,0.24626989135755067,0.7652207782404375,0.6441112228002401
-2.22504350909103,-0.12575564595231814,1.496973032770054,0,0.3091608456274116,0.9751237784216216,0.39418984404352453
2.7243061635523347,-2.3726732510938544,0.8441476057002051,1,0.41941619496267496,0.07456060471963646,0.16886737396184112
0.6370478067052803,0.6749370425825001,-2.623967191788205,0,0.6088583116866275,0.5202101467561042,0.7459998387618999
-1.6281431669792237,1.427718721517631,2.788425357611807,1,0.5132101218332408,0.8475783271435063,0.7163503995058296
1.0302041064351402,1.6036698063218893,-2.864270657237396,0,0.773583918300866,0.2582180361381463,0.8564434847884312
0.708769442747375,2.4322391295745645,0.5397638788565313,1,0.9132832357515112,0.24641924148585273,0.7842806173314183
-0.8510236918029568,-0.5431755486673371,1.6582047707943346,0,0.28862739406275256,0.9172406300229657,0.358233622296901
-2.318654446802226,2.7184366117328214,1.7273778782683378,1,0.6851865514763038,0.8103372261563819,0.8046751120540472
1.0294391735567974,2.192576430496116,-2.7942891864407775,0,0.8239753619646923,0.14669199731916557,0.893642227243819
0.12184620542275981,-1.2209905738563658,2.438490795842636,1,0.5752659746631604,0.682739969005625,0.42493270531077726
1.633910350413836,-2.044301775903249,2.5107100315627333,1,0.7734815779558767,0.1913226882277618,0.39564991437070773
0.12098100667196032,-0.3876636232319193,0.3683422389262363,0,0.5244055929273507,0.7800945594597732,0.34281232290867286
2.1130890019112405,-0.5886077522642004,-0.10750080667712325,1,0.7227687652804494,0.3170159208610378,0.3757405346157763
0.31144103264691303,0.454315831987226,-2.730795221624401,0,0.4669396421782598,0.6340387397569555,0.7013140490567824
0.3656278292123174,0.5003173939664878,0.3717248550592118,1,0.7105341524349424,0.7339331340851564,0.4943386423753756
2.25992161595007,1.4999219062798517,-0.5437255093786155,1,0.8512637059684607,0.11055459605844214,0.685848302710507
-0.5791028027256178,0.05933968923366084,1.6368384444519366,1,0.42551140625017825,0.9136977494662148,0.462493481637508
-2.195908629296156,-2.3710641543554067,-0.576698598683473,0,0.07077219236457345,0.625742314430206,0.10283342299539307
-2.827303942119966,2.1497480133186366,1.1014849999482585,1,0.7194246245897294,0.9028747992092561,0.7191111058865448
1.5308235340417138,-1.1414125008888776,-2.391551122574815,0,0.5524637311746735,0.23107440347257824,0.520154887117132
0.721857308120788,2.8277847618395526,-2.2022863754041984,0,0.851242080591909,0.09246616778310864,0.9051802913893552
1.2244786085953416,-2.292839347921379,-2.1617388561050497,0,0.4051630274863189,0.0867501674629412,0.327199223147922
-1.7222150309465356,2.7495070333950196,-2.7268470012015387,0,0.2837089489262397,0.4966913154771769,0.8470813184766952
-2.1817711464793814,-2.453929158704898,0.24797315561882272,0,0.08461707383150113,0.7290774996765577,0.0923981269019815
-2.9127320059927087,-1.6137831723176432,1.7638063562618154,0,0.35022468704263177,0.9509965251188499,0.2762559202067928
-0.8964746471604181,-2.7205203474807504,0.6624672221619967,0,0.08840913418417663,0.5131327690466012,0.08794384820611484
0.5395061211277987,1.2306788798339694,0.44972931331713717,1,0.8206601872131201,0.5678336014525179,0.6209564520998507
-0.6465357294016059,2.101792419430751,1.0837435704164182,1,0.6159473616323885,0.6290535799155358,0.6869919747528855
-0.3751504678576256,-0.3955735091041177,-0.9621280615679115,0,0.26191403203431773,0.6970235464597809,0.3385423378333719
2.4249521669624903,2.571132450254578,-0.8282755701106268,1,0.883125481986126,0.030304633739983957,0.812653951022713
-0.9104671978601981,0.5417944305335975,-1.1143794106744647,0,0.22302883009651844,0.755500875059785,0.4473937073496392
0.08393693495886456,0.780042812679139,1.2726535971214537,1,0.7104509296192779,0.8107712197279356,0.5877540306265646
1.7019180764468587,2.072515210204619,-2.0301579859753542,0,0.8715052664615197,0.07135299297745314,0.8655023638591854
-0.620743306072379,-1.2191987696889666,-2.9218483181224535,0,0.08638353096676239,0.6807642596120401,0.38315016177543904
0.7325202013672412,-0.8744056720342455,0.5771786803349546,1,0.676792244158375,0.6377682150318658,0.33712158489774013
2.1741822524804713,2.435711515167866,2.654288188405232,1,0.9626469006522076,0.08908796960338429,0.9031384871411634
2.6971237419458527,2.405780976232583,0.6564475019778282,1,0.8854203631337718,0.06786053102155576,0.7719539468751747
-2.1175591144257724,2.858896657205225,1.6975299176453706,1,0.658673653904869,0.7748783365227913,0.8079664530443192
2.559525750968966,2.4110298986500265,1.0367442567961813,1,0.9122294643068167,0.08795585716941745,0.8040821389772617
-0.04730224152277085,-2.235767783799835,-0.015380078861902291,0,0.23264696889859904,0.32885509744591235,0.1346662965220188
-1.45053367020625,1.942345716821924,1.3103544107030762,1,0.46881887723138344,0.8023661361158487,0.6546500962125265
-0.24518546257043194,-0.5409691313424356,1.9446247431313308,1,0.48720241824243943,0.8672034852796296,0.44051186975130396
2.8801954517128623,2.9448081356756273,-1.651610134969812,1,0.7965009265724654,0.015087114018044306,0.871088789507703
-0.04429143604278263,-0.1663142140271936,-0.9832171171011268,0,0.3906602645543849,0.6539110622815671,0.4025928209250256
-1.0274903382749507,0.32301649501332363,-1.6576456049802968,0,0.16523358022397683,0.7794680720052798,0.47371880804051986
0.8004051259003546,0.17864949154079124,-0.2869622664573539,1,0.746435975685759,0.584785382823786,0.47868566480136837
-1.5591262873308416,-1.0695778208503333,2.3103873055000053,0,0.20725189630023685,0.9122174342140984,0.3307651247666199
-2.5448200313480163,-2.5498674666424908,-0.9287573949880059,0,0.08343808560753645,0.6175747654971152,0.11363617205744951
-2.2267216685361046,2.3739073824115113,-0.7531986652166798,0,0.44331184147481134,0.6080612921025935,0.6775638082320157
-2.231724966253365,1.8160548751577208,2.1622034080315906,1,0.5920761323159073,0.8884614817467507,0.7412793719220477
-2.088583838926234,-2.1628393166419846,0.09224598446805121,0,0.08650146222354294,0.7437742681533959,0.10497359990668892
-2.167036964103539,1.6606096281004374,0.21269399788460674,1,0.41409416230349044,0.8549251634057,0.5440484867134928
0.8452484688192876,0.7550799963036603,2.1648072199932775,1,0.8955927032926828,0.6851956400323079,0.7373319396243724
-1.908719493605131,-0.5451372724942662,-0.05683957784716043,0,0.15384091287364188,0.9250673373221291,0.2308260077696091
-0.9259963000568208,-1.4758731054266236,1.089345207776372,0,0.16659375723232664,0.8138102094271742,0.1920499465436665
2.380730459436071,2.158372701013395,-2.4861320047556354,0,0.7970027919871574,0.047585777820432454,0.8773128130486112
-0.15623015842276589,1.201129555764318,-1.9282097212386882,0,0.44737283803128636,0.4757157184455436,0.697066120215105
1.0053464311261635,0.2864394568148212,-0.5737427957025263,1,0.7751491798571284,0.4917218717623638,0.5224012565842068
-1.966080772790221,0.6574112033907848,-0.030965593080750864,0,0.25637137354590167,0.9242178018350872,0.3835591781052618
-1.8462658871479753,-2.453602907506914,2.7944022074173773,0,0.13800885272915392,0.6874369502760777,0.19990078326911817
-2.754788302401127,-0.15648143453284824,2.8239097982867403,0,0.5505977229969248,0.973604845701166,0.5572971255981806
-1.9863896215670127,-1.837798243285788,2.10718252487257,0,0.15988824964443527,0.8669429868591052,0.22915066974188372
-1.3284579658082483,-1.7496979259470478,-1.1064069882865528,0,0.0651959071812399,0.5556092795540533,0.15948445413947482
-1.937937094339519,0.9678237737212001,2.784169744994638,1,0.4797926618205441,0.9224252598279225,0.6627899411153385
-2.467784797457666,2.4675369110057286,1.1360451880572757,1,0.6544443321881179,0.8417829341641019,0.7350394709241427
-2.276184773396395,-0.5774603371299207,-0.6423592330955978,0,0.16472582623357782,0.9173602641366336,0.2589635662962944
-0.23532739180364537,-1.7535043619268578,1.210049501908598,0,0.2966129164676007,0.6513942662947066,0.21051005032021688
-1.761997689565245,0.8924816234199255,-2.9008636212808403,0,0.13048432775006472,0.880343674510303,0.6521176246034415
-0.8143808337115472,2.2271222781019064,-2.1230719063547188,0,0.35107628721299045,0.33700254637129473,0.7871223278671209
0.020503625129141057,1.489912806734945,1.9781142693382066,1,0.7972418133482928,0.6733293610885668,0.7503018160619113
1.1423689717761913,2.212543383219523,0.8734418212390267,1,0.938930824487422,0.2505596837783517,0.7974250796754132
-2.7641271609534064,0.21932802606479607,-0.8148317922486958,0,0.3345596339584168,0.9465069828395434,0.4112440760217977
1.7964623934542558,1.5112574662151452,0.003999841336312926,1,0.9019248001121624,0.20375873655658494,0.6892502730313604
0.7674023369454464,-2.159612643846381,2.430852897874602,1,0.6661563316051413,0.30497921419714125,0.34544534467604726
-2.5094458083067686,-0.9103523078208511,0.7894686568745195,0,0.24886913023746013,0.9623376028673641,0.24329957045003406
2.2414717446406636,-0.6627050131108652,-0.6111042963940188,1,0.6593545715707091,0.22290430610706746,0.3790059410584526
2.525234403190879,0.06777447747620746,-2.27804005561479,0,0.5541804991571035,0.20504575140636652,0.6449151903306852
-2.6335322408708173,2.5744581615409423,-1.237519190246634,0,0.5464278627068899,0.6066400346337353,0.766116420358416
-1.3387341111167776,2.245779361333046,2.8700413967795004,1,0.628108510114806,0.6245449911162398,0.8084341982402831
1.837207678758368,-2.192847046264893,-0.37582162288933496,1,0.5591992352233988,0.0812162403157296,0.19862304570603156
1.4895581423019504,-1.9632620887052208,-0.16896321693083483,1,0.6136623144200012,0.14575134746026572,0.21888835643533894
-1.892873883861736,-0.8541567024665317,-0.008411805617907664,0,0.13558295773947585,0.9085980868235409,0.19910328747745545
-1.7439040599797382,-1.2555368046559565,2.3046241376892667,0,0.19560981621660442,0.9077972005344871,0.3073611650570877
-0.7771673832517081,0.6886257189375735,0.6235697063118595,1,0.3727328669142535,0.87621157409415,0.43211448247250656
-0.09286208885387204,2.416656286587269,1.162062218711533,1,0.8050017371504143,0.45471865809654594,0.7710374129006924
0.7095286291817757,2.7737492500355208,-0.6635187447053763,1,0.897065253278129,0.10731417730975669,0.822141622650078
-0.7865181625813653,0.9216177152113589,-2.825474288466154,0,0.1902046638491128,0.7571353179749086,0.6780960987385948
-0.22479170320111264,2.0289552084065203,2.5858374854570663,1,0.8109007846996895,0.5045962954773319,0.8253412597068465
1.4848256288025397,0.1512132013847829,2.694766085498438,1,0.9151727972937467,0.5746675125135199,0.7191323973971608
-2.7799007826564126,-1.7500383188397617,2.6949183200883065,0,0.35495492674918055,0.9098953726461451,0.32286825070554037
-1.4853783339358755,0.1481304725608643,2.662122519880299,1,0.34936555216151094,0.9369131078418811,0.5334391072002755
1.2800975153073146,0.33049560862590655,1.8914516464173659,1,0.8974998802919792,0.6846663367213823,0.6768010242102813
2.3712410261231955,1.4547453852813392,1.1075763006979606,1,0.8913133455676062,0.24382699784612066,0.7166666577693264
0.07006465269399698,-1.6807020617559054,2.0670595096037134,0,0.4712262852141616,0.6053683508428757,0.3224911582227497
0.1926809115918937,-0.7901377074796097,0.603277434006217,0,0.5182795235369861,0.7479094091835797,0.30805533211363306
-2.3569679319613437,-0.8158351847126024,-2.1937823166478583,0,0.10660562994769349,0.8946730367947694,0.3821591921481913
-0.31552579905927214,2.756637574446989,-0.6526910097514738,1,0.6719541998485038,0.21671962197515518,0.7563238972801655
0.1957035987301392,-0.3363302380396864,2.827769471837625,1,0.7254882574595096,0.7671507038509807,0.5869969671140703
-1.545176978191622,1.530563803788879,-0.8931731184260618,1,0.26851345595532017,0.6767907216319371,0.5510707707185641
-1.3845406143037142,1.5048682882466338,2.206967482388217,1,0.48512130683259785,0.8519215630619954,0.6914483411981753
-0.7362950213722641,-1.4067348911805517,-2.4407311753507823,0,0.07995874348962785,0.5826385326519304,0.3250814206039431
-2.879572813333642,0.4312181362303926,-0.9948969457471826,0,0.3842830466494631,0.9430376122072375,0.4707393292220679
-1.0675250065009303,2.3658173599118886,-0.8942800516357226,0,0.4014590021420922,0.3662206204996146,0.6804947557364401
-1.7313119580207321,-0.14881368325830335,-2.690384741346119,0,0.08609779496721129,0.9060685536826754,0.4914544101403266
-1.0350158869325121,2.6707050440552766,-2.28543401887947,0,0.3452276905201513,0.3164535939401058,0.830073285298229
-2.2814272090844927,-1.7132506240550305,-1.841008733269374,0,0.07270553353836673,0.7271427884468397,0.2318913054874706
2.3431636844393697,-2.5550453653558156,2.0268935448606777,1,0.5998730957401812,0.09573710823871354,0.2638022224315061
0.561554721324292,2.348723238868496,-2.6195880603611617,0,0.7662469700993852,0.16240494781334439,0.886516849586319
1.0746139148669371,2.0860871877733,-1.2077945919336768,1,0.8807776353552884,0.1085710142228622,0.8062576072695018
1.7350274316440295,2.9555392556030684,-2.938949984464395,0,0.8885387405623437,0.06249161541272671,0.9344846274029548
-0.009346806425656329,1.0763609286745561,1.1737664724181487,1,0.7060529115965555,0.7724976904083564,0.6103390017199707
-2.478478271475458,2.6201275600028975,0.721818540260279,1,0.6463990508204113,0.8029444443250148,0.7212246011449021
0.22263925091128645,1.9616941505046652,0.8698935723188508,1,0.8282139765782587,0.47493313579544594,0.7196819132876674
0.521046708125275,2.066557998720521,-0.7537032917122879,1,0.8254691450488656,0.1874416552633189,0.7454461155543084
1.4726368451059795,0.41484942272560943,-1.7503930723945857,1,0.7640631263790424,0.316773782827295,0.676186360016017
-0.41004272262192387,-0.7058124124997347,1.3219212797162,0,0.36486675335736063,0.8721126789034982,0.330460337170908
-2.2345181832266174,2.6073484352596914,1.8667072364441708,1,0.6642137336290719,0.8060281977590611,0.8014103970308845
-1.2973445652076532,-0.4072969463046334,-2.1683910114107894,0,0.09125286626847852,0.8265004726254622,0.41382186407337795
-0.8215062216081894,0.23291620349801434,-0.07902343237547171,1,0.26785990275898075,0.8544008345975325,0.34263831868316164
0.8755034479896073,-0.32331415724887336,-1.507705908126825,0,0.6313075505030211,0.4350724658491326,0.5203970901453386
0.4246698280134713,0.3889098837611824,-1.9913588327631977,0,0.5535629895929067,0.5328650686873049,0.6461802569653905
-0.8634196446129225,-0.17696952604603666,1.4059518809699947,1,0.308572165224034,0.928409099893381,0.37936158438787776
2.919091492757878,-2.7121946485231447,0.22858161283702216,1,0.2775758668066578,0.03669549185204608,0.11649555024680139
0.6346489161413231,2.2922891160461916,-1.7028880057279934,0,0.8212178508285977,0.11981021472673337,0.8426906057811898
-1.5766392495840331,-0.33363708650538104,-1.1399999327307295,0,0.11828280875967141,0.8530965287002545,0.3081094489047644
-2.3893051642775776,0.5336618910440922,2.7999220279664545,1,0.5204489611500364,0.960041203219277,0.6266731869562194
-2.0828451648940076,-2.1648731834520776,2.09207738825134,0,0.14648662370300577,0.8322433776018029,0.19803436644516262
-1.5242536296929512,-2.9796729121041654,2.2796804572387703,0,0.09076680675077223,0.6379462849073473,0.13448442058166718
-2.0359117604426658,-1.5282594381381422,-0.23992741751575197,0,0.10185670637658625,0.819566876099844,0.14677265710937823
-1.8805978556921654,1.2275161928001017,0.74284358352525,1,0.35618068557686605,0.9154320684995355,0.4968195394581783
-1.2894289878369174,-2.4048328193227286,-0.7393935587735303,0,0.0538983842136109,0.41850241599656723,0.10005541305385997
-1.959758428231471,2.4533246423188073,-2.5337281458666565,0,0.2846705089784263,0.5600115374195076,0.8194030408695444
2.3805925477585514,-1.7098645838628925,-0.593584136059305,1,0.500365371689082,0.07853984187933095,0.23784495734782807
-2.5185975260301467,-1.7724383142493452,0.5638845192428681,0,0.16906629023177402,0.8955449322162793,0.15194282769353795
0.14706833742152803,-1.910952230271027,-1.2771343753912114,0,0.24623239840904773,0.23360809387050568,0.22571174452366802
-0.5376190380620312,-2.9161097221718117,2.0877034483644943,0,0.16799805544843063,0.467301236718135,0.1535004818877244
2.894271701451638,1.630832810869408,-2.0933990449524082,1,0.6352039410685959,0.04769839836559017,0.7901767561005223
-2.327766586991686,2.250207187471551,-0.7972254633784805,0,0.44906629786308133,0.6473514248464213,0.6704031840795687
-0.6128664057255504,0.6849762156971932,-2.2505765680547825,0,0.23227551680967426,0.7058299660226106,0.6213332344640611
2.8168225996522134,-1.8708001099208262,-0.5710071960886483,1,0.3479492159732404,0.0480430431648932,0.19536451579447106
2.193042755363882,-1.2883320183547216,-2.7620321701543773,0,0.43685915186735025,0.15718486798664694,0.5041106660930704
1.9024324256956797,-0.14443981581022047,-1.3647036296301274,1,0.7184195170646634,0.265099773869824,0.5471648676260414
-1.452583037730361,2.7260757097398045,-0.5955884693178977,1,0.424294098534305,0.41860075059139956,0.6951966185822461
-1.974674475659605,-1.5158917690935432,-0.1310078203398506,0,0.10187487931396891,0.8255121079095519,0.1451612114013727
1.011859319546586,1.389875423519328,0.2621781508508514,1,0.8854738836400076,0.39840020048611424,0.6659978701650501
2.5762559347655145,-0.3633106602424778,-1.3500532212604865,1,0.5540082107284119,0.1648812059356141,0.47173424227632016
0.3405773580835785,-1.2129159098398692,0.13824800768923406,0,0.48402130855779185,0.5607857099905661,0.2517375919997607
0.4296761368193991,-0.2645043778673175,0.054027729372359,1,0.6245299853730062,0.7010549999589327,0.37957736110150647
-1.320125438038295,-2.572759694752605,-1.1029316947427494,0,0.04434577620817286,0.3589995112074786,0.10371190173274024
1.6169575991516218,1.7921242255821745,1.9812019839388695,1,0.9520667095965253,0.28595222238192936,0.8421534793221442
-1.8777375086548598,-1.5401884321021972,0.2738467595613905,0,0.10737554087545906,0.8491845382151281,0.14346712189762836
-1.057924581574538,1.3524727391578226,-1.00638168752073,0,0.28237997518025937,0.6259357910027881,0.5487167996772279
-0.44738136830149955,-2.5899097713108317,2.684031072484659,0,0.24256744106052056,0.4122106690217297,0.21781893280837833
0.04566227210673013,2.7305913369941166,2.070674478426966,1,0.8864486076048015,0.3723270509854989,0.8694690830761184
-1.5455416055095186,-1.8419100875658083,2.895526869310805,0,0.17482375268627323,0.747548638260684,0.26501194080568213
-2.310979051564779,2.2964524572424825,1.1534032478725242,1,0.5954950727320238,0.8445310842459955,0.7067898888189439
0.6637202546497956,1.8568392576926067,-0.7306625669637188,1,0.8366209611231323,0.20804993030322824,0.7287239369870069
-1.2682166805584654,2.8071595444884956,-1.314835999925926,0,0.3958642707091725,0.3108524740347716,0.7642062181708779
0.4874293285356739,-0.13265603432550233,0.9799070620468857,1,0.7171114619750053,0.7991235234415796,0.45740324939012117
-2.0738237083547864,1.3643837630757094,2.8848994949718225,1,0.5581040635194551,0.8892120101542277,0.7214763876457964
-0.11315938887109489,-0.7757360577732957,0.7602904806230928,0,0.41844552170946897,0.8068400524291339,0.2946456646628757
0.19553659530951517,-1.893790571881837,2.2896896459390295,1,0.5078621036259922,0.4973641129121879,0.32535251797513354
-2.6890587790654386,-0.34154440239930706,-1.0253794137133883,0,0.24337677372518188,0.9360456961641864,0.3454246391296021
-0.9803743308364767,-2.0055059076692707,-0.5582773051544665,0,0.08193854032495865,0.47704488762937813,0.12350272916133756
-2.1935119383661545,2.8922677367183036,2.43765143753612,1,0.7229181209386922,0.7398084954210103,0.8571221329138372
-2.6197501771633935,-2.4225210531557018,1.5412002117469132,0,0.1829305076703946,0.8690508427646413,0.15873109339860753
2.939761394339671,0.5352703407157224,2.8884619222074344,1,0.8076588873224129,0.2415231604945288,0.707942932149498
-1.0658769301516622,0.7587831315243356,1.6485852583934513,1,0.3920142962784841,0.9184441684186597,0.5359478052583133
1.8592466751278094,0.22847725724432522,-0.3089057566906095,1,0.8114708270426924,0.37019184215275014,0.5110550207329376
-1.472156071417417,0.9731153142710012,0.1864081189341782,1,0.2788388917720801,0.8789717302320466,0.4242075226733331
1.0890163333435758,-2.3029153499286545,2.4030929547788205,1,0.7106879420800915,0.23109754492125154,0.3412922287806262
1.5613671593381193,0.33011114523174623,0.3098804165882876,1,0.8529531045322059,0.524873247529754,0.530428323202239
0.5738324436470656,-1.2767245732358308,-1.4676157550133289,0,0.43429097694552954,0.30841896716582684,0.35425408596944435
-0.17054286869904978,2.64105637980634,-0.3862811233803036,1,0.7211288133567956,0.23503809571541057,0.7414634158558792
-0.5289545151163888,1.5724299206383545,0.09789593309470757,1,0.5146551062184667,0.6200171572654192,0.5606990357952458
-0.906790400742028,2.835086892958456,-2.419680998693223,0,0.3799747143791301,0.29292615069288624,0.8533739198695341
2.5771748654869553,-2.7746635815588627,1.4625760455173413,1,0.46352168230141394,0.0768486641405722,0.18170578521326133
1.9837164467263744,-1.2892009489157479,-2.3438763998701617,0,0.506541125910718,0.14747534878573,0.48551210089438473
2.790161463999075,-1.827464480169906,-0.5704937197871658,1,0.3615789647042328,0.05142708678039223,0.20107338406743278
-2.2542166590867314,-2.9330724761290172,1.8277346492424273,0,0.1109235419499084,0.7869081293609865,0.12532410453650253
1.3852048512218653,-1.5460456185220715,-0.19457783032021858,1,0.6553962390542367,0.2290271315773699,0.26404272262413997
2.6300427409262266,1.0726559011225731,2.0520931183110473,1,0.8683273541178982,0.2869576618127557,0.7447622912091763
-1.912601603006039,-1.6134664671925887,-0.9487120676633101,0,0.07553818239616207,0.7130056237960822,0.16296841004028573
-2.601022395799335,0.05402067289570933,2.7458177639906127,1,0.5196943382179329,0.9720484693841135,0.5714847436740802
1.4467238957403543,2.3269086897899918,-1.7431894091685867,1,0.8936868879420674,0.06474752235818307,0.8674778976688892
0.4468386790794714,1.1625475220944512,-2.770415130064192,0,0.5982850047031142,0.4663094108902668,0.7918850486334674
2.0509726605496326,-0.6322255805638082,2.234559257942511,1,0.8435160142086939,0.46970085056747385,0.5703973813954626
-2.161365740242263,-0.7651863665273502,1.513216295702449,0,0.23603102670577886,0.9642029542483515,0.30573491317152207
1.771603871159341,-0.26558511594909184,-1.6080969775957632,1,0.7015389712352068,0.2771046411995286,0.5624859314172307
-1.7902360797135328,-1.9377513536405617,2.9084496428200435,0,0.17359354333818858,0.7619471868129036,0.25605285358441726
-2.018064342805773,0.8040046044959288,0.013680775611167206,0,0.27962115981674157,0.9210443438424339,0.4065603192668913
-2.0144052124140424,-0.815083085372367,2.7063926408649808,0,0.27879701411974056,0.9387512979856983,0.40204765685395427
1.8874483213882929,2.114192095572262,0.03017262832199563,1,0.9235489217459568,0.1081966017093786,0.7593019248902879
0.991183324177201,1.5393159603468973,-0.1687524793722539,1,0.8780448417409448,0.29468379184196325,0.6825167299797006
0.13839254861471595,0.6630789845529605,-0.30516877713320945,1,0.6099056584375023,0.651284214296768,0.4940327200731813
-0.8470170952589848,-0.8147866641029036,-0.9907483432022985,0,0.1384074708182896,0.7140909501495459,0.2568076764716914
2.2632032448786497,-1.7404090099590936,0.20220898305931012,1,0.585410812572279,0.13324813576818278,0.2268518727676529
-0.6453293554641877,1.6569111846337368,-0.28467202830859284,1,0.4602991483932681,0.5539055399222143,0.5679973834136866
1.8995966368294628,-0.08154540605348082,-2.779518740258675,0,0.6329787947465296,0.3608642553167861,0.6893810046660453
-0.36519054857868927,-1.651499770935855,-1.437388599458985,0,0.1427472284794902,0.37792458437248405,0.23142950894557787
-0.7383334234505545,-1.8289523097599627,-1.7212631993666496,0,0.08014050662874923,0.3994441244503387,0.21557467383287862
-0.22392128598236116,-2.007594572991846,2.2046136139263997,0,0.3372674532061366,0.558611627962004,0.2694792660213014
-1.1917327550151475,1.6629671772335701,0.5932198633610488,1,0.4051461676932449,0.7745635273418129,0.5527042883893654
1.4856562810575067,-1.6260768881981298,1.5820986026983643,1,0.7606338661312346,0.3647346631666809,0.36090369499327446
0.016322340554874692,0.15985358115118498,2.7409562264956833,1,0.7164045117362271,0.8091730746774765,0.6371110897596711
-1.6067238291190962,-0.2907218341616611,0.8642356351584599,0,0.20018760507128458,0.9510814573228262,0.28930007738337077
2.3974474396474106,0.4776653953697032,2.8956599484284666,1,0.8931707028240714,0.33584841311561475,0.7393305258978161
-0.6966526717607318,2.262929402227165,-1.1294156900872223,0,0.45764155755231395,0.3012381560440158,0.7083744007372474
0.26131716668393157,2.206484340490384,-1.8823969061226369,0,0.7162738261621137,0.16969053030293407,0.8292785973748145
2.438832665787282,-0.2935435690508421,-0.5801406720425311,1,0.6567118808855608,0.23395793170223034,0.4168328762055626
0.7454279754839526,-2.9078024955916604,-0.1752035103851517,1,0.38012144666766173,0.13173407165685785,0.12285015251910994
-2.298611755749816,-0.4413371657141809,2.3721692571155106,0,0.347745943731707,0.9680438207343867,0.4491023796396243
2.638992741680851,0.6371612245448421,0.3596426342200578,1,0.7593340144249103,0.2889907059878338,0.5267164377215124
0.7662483184285072,0.34658855458837046,-1.246914003491898,0,0.698333680514923,0.4630775485637993,0.5808352741923735
-0.9905663120574832,0.9080166348012328,1.4558056972051254,1,0.41005093118425484,0.9025779643629733,0.5381523593309709
-2.1643675640196767,-2.075545605161499,0.034991622834425584,0,0.09357898574605322,0.7641697329311957,0.11139199959541601
1.764151135621776,0.8792105926843954,-2.027208328348979,1,0.7864218398341503,0.2185122514038241,0.7577599584355057
0.7204365355710811,-1.9040902875373666,0.4609187255475131,0,0.5438370755868516,0.3412793002952796,0.2097569330129954
0.2007665518579289,1.5031438841804938,2.468367220843703,1,0.8570759202536574,0.5883056494351937,0.7977937468861528
2.3633554983057454,-0.9654743204239198,2.0557357048549205,1,0.7662078843580122,0.35696535415392133,0.48365652700100614
1.731583267347185,1.259372600288721,0.5208598358119865,1,0.9060725459296408,0.3386689888779811,0.6718949979424541
-2.089950721603493,-2.7128064065633577,-0.737500956690071,0,0.05315053042650674,0.5274441563133604,0.08745962120407527
-1.1296675932267106,-0.5528398464545194,-2.478127493614733,0,0.08500071283125159,0.8166603334268011,0.42568446919594083
-1.5090651611132055,1.230207133579997,-0.18210646001025754,1,0.2815732295386801,0.8147736880581677,0.4618627151530908
1.4636777554360618,-1.6387769020110352,1.5124766251774755,1,0.7550550133664999,0.36501888764834467,0.35098732171349917
-2.798805391585324,1.7717222687833356,-0.8383576816019365,0,0.532500008628996,0.8144320816152261,0.6443386732028838
0.4193381092278994,0.784678398629592,-1.5873190466900136,0,0.628754540534577,0.45357503562856977,0.655189704835251
1.5747521144441432,0.5253706328987899,2.58827831562572,1,0.9268416916191318,0.5364902536797255,0.757792167007718
2.260593820570497,-0.878706874773977,1.9293342027479543,1,0.7852468969392166,0.40438894674603576,0.4891963232749506
-0.947509507704555,-0.10529117771329455,0.829653716520868,1,0.26469718491312705,0.9218498477155644,0.32617727047310896
1.9275438280320767,0.5840958058671184,-2.179299936476884,0,0.7395853236761669,0.2468776464898262,0.7332339366752512
-2.3362095782687566,-0.16522731651065747,-2.130546957562962,0,0.1414350293799718,0.9212500294268345,0.46951600997589904
2.0787137504071094,1.1898799436433602,-2.380682451265326,0,0.7669867411178442,0.15452377978610912,0.8062048205666134
-2.2350680260081055,-0.39781840135824265,0.6977800013564592,0,0.2367421808113806,0.9659113361477785,0.2815527099179129
-0.6162762566377964,-1.786360909547818,-2.3066232211599837,0,0.07928014340102167,0.4298284842243021,0.27539573584619065
1.7837721946773222,-1.7163973031937165,2.055763193175798,1,0.7728790126350689,0.2725270449192048,0.39992290101558015
-2.1004954359073573,-2.9651773869423534,2.9577900109159323,0,0.1312797735266682,0.6517998345151425,0.16345915691820628
-1.624491628604151,-1.1942537066479653,-0.8019108917480082,0,0.08822215469256237,0.7751742246950042,0.1879107625511888
1.3335154103583982,1.4935058428711177,-0.2779809181974153,1,0.8929590948529952,0.23753415148361434,0.6908487042426233
1.3202192192764457,1.7649762530256572,1.270003061914072,1,0.9380016111140276,0.3499728690169514,0.7855579296676809
0.846885797311784,-1.7851947474254999,2.6229180379545944,1,0.7346043266649606,0.35759690883345496,0.41649227332420347
1.1636906668025997,2.754263981228446,2.3645626413383107,1,0.9696431763159385,0.17490685154018257,0.9150072655843159
0.25634666008557705,0.014416760880760382,-2.6544490275009087,0,0.39919896096463287,0.6608591849164381,0.6345777178535733
-1.4892056465582835,2.5018724941110158,-1.98556918465941,0,0.30158859836612545,0.3984335155802858,0.7864982041601507
-0.9258240389764834,1.2405916911697865,1.5275831913467535,1,0.47001008210964706,0.8616532473241856,0.5994343050289649
-1.910413699191446,1.3346005381344783,1.133358648194684,1,0.399627979704851,0.9200646611422469,0.552752334714745
2.4507033680017702,-2.4897382721635735,-2.20068843575926,0,0.27903739121188836,0.029881500204014227,0.28000736827670586
0.5003507685967228,-1.680053238618416,0.012387492009406031,0,0.470855483337416,0.3722778377683772,0.21146784258770768
-0.5948914994181607,-2.947111000233164,1.6848877865117737,0,0.1407931978089208,0.49849617122455153,0.12614172737444956
-0.22796517813520367,1.2967658428604247,-1.687315906423838,0,0.45095680142924244,0.4531020416365655,0.6782605017436066
2.683700037670892,-0.9333702694289401,2.2277258144079974,1,0.7036460208968721,0.2934896310139632,0.4805462000626663
-2.079891581303519,1.719915096458081,-2.682169351077792,0,0.22192697482813042,0.764089292199448,0.7559918396815744
0.5173789921007836,-0.9663826803778424,1.693170510408443,1,0.6827991598701775,0.7236815777830005,0.4204433730661165
0.035332073306795664,1.9160025137931669,0.6949133987392218,1,0.7719689210082084,0.5034721287255457,0.6856104568038868
0.6687254126078868,-2.215810477510122,-1.1088039200739053,0,0.3750606721586735,0.13203912464107093,0.213432490397362
-2.8913388970749567,-1.9597610594549508,1.325595290051468,0,0.27814601511662695,0.9266991167870119,0.19840513625790007
2.2327434536649093,-0.9547407624963808,1.6941947709069582,1,0.7710206669211784,0.40176096854447935,0.4512100144991162
2.592709694901674,-0.5490756667063601,2.6033938278238153,1,0.7839918035031938,0.33364482195640527,0.5765349817306622
0.39079910153525343,-0.9077831349421297,-0.7933519670744182,0,0.46990988634107766,0.48177260439339864,0.32234212550745367
1.179904943261354,1.5818821951393192,1.11610041587973,1,0.9250222175448664,0.41864202875834106,0.7501406692659973
2.534996287063774,-2.4182916442397118,0.6156976616081451,1,0.45776960686674545,0.07424238151065723,0.16367553875415142
1.243431805880392,-0.8926978821690716,0.15123641674253108,1,0.734848224815008,0.4659261175851069,0.34272947007727766
-2.084765742514432,2.0234399970927566,2.342498844930227,1,0.6006729522165164,0.838174309071334,0.771080488121837
0.45773016100087904,-2.599217536426968,-2.980996115169598,0,0.17784186511992703,0.18154702180858848,0.2912750997695104
0.6402902782971354,2.6540610460281444,-1.3073303633784141,0,0.8618776914415358,0.09549899831496046,0.8456905733705249
-0.4552159721856839,2.917901053632077,0.22966343726898053,1,0.7044053962215937,0.3437618632704033,0.7480061611749926
1.4186654137483368,-2.4685909570495195,-1.930240430180686,0,0.4180722542552069,0.0613100165340991,0.28702082091211034
2.606202088614089,-1.2523648664655782,2.4471992023965496,1,0.7054200119353078,0.2207458273673687,0.4593084125147191
2.553411077440658,-0.7655960037878629,0.8855707056780924,1,0.6715374291424163,0.34624815824206384,0.36497353710443686
-0.29496377157520737,1.6583482119163566,-0.13270203220806032,1,0.5874189763724835,0.5096047927553922,0.5946260757910076
-2.3205717249554683,0.5755608727004029,1.8882105543999277,1,0.43941925302150153,0.9714783048764234,0.55197537738981
2.9090471937740077,0.8661942029554042,-0.29468285120937754,1,0.6660503560926402,0.14763569249266947,0.5333134377345685
2.033388518675604,1.545058936911036,0.35191807158005695,1,0.9020712137593285,0.20512911460435948,0.6933096666915287
-2.252023912780399,-2.2921260033778457,-2.983494026676474,0,0.038928897129096994,0.7107336899772483,0.23286007399120479
2.525051295704234,1.9992567414615738,-0.8057968188295588,1,0.835513016804081,0.04637217024869287,0.7473582983126628
2.2193781723727692,1.2337188250808637,-2.1672571658941813,0,0.7617130211006526,0.12371009079677156,0.7924680304853278
0.11302834275643292,0.4640503511782219,1.1381320839737459,1,0.6775743124849124,0.8345426026678797,0.5284442134220799
0.5476526144695755,2.3384120086983398,-0.12583824614559713,1,0.8712976648937989,0.2043569543372705,0.7531111581106202
-0.6059837767792184,1.201838123302843,-1.1894546564986153,0,0.35199674881993576,0.5665633979928872,0.5761995763102874
-2.671430167067812,-1.7898002242138475,-0.19300596376954537,0,0.16350887751590618,0.8509622697198411,0.1485766310417482
-0.9888165501245947,-0.4215277135459994,-1.742220672291923,0,0.1206282607944099,0.7678607876225096,0.37712385075652205
1.8171206915880687,-0.03574279838560024,2.550519794916843,1,0.900429631381367,0.5338515177596236,0.6860360634874444
-2.972207861972383,-2.668694239497566,-2.6761642046945218,0,0.08393379178326424,0.7301335027592847,0.22761416831876452
-0.9990049698531349,2.7278250801603345,2.1925022117767217,1,0.6814109998340462,0.5669675021445592,0.8308317065274925
-0.6109878384543403,-2.228536435218729,0.06815273240010544,0,0.12408114720616481,0.45087505801660865,0.11250234073814219
0.2243736176275375,1.1847676033603616,0.7136789768329033,1,0.757722063331152,0.6749258403676937,0.6039329143965072
2.519133698476563,0.03738621654528096,-1.1843662745477772,1,0.6313319770915427,0.18777578820011426,0.5167945661032141
-0.9219240338042325,-2.8462065006934645,2.800185700765928,0,0.1445260112846151,0.4560836296474433,0.1743238370058274
-0.9182807886226341,2.54848485518617,-1.308894248883061,0,0.42305024832449645,0.2815969493102422,0.7468360217173334
1.4250074886584905,2.111020852913599,0.5332679828418261,1,0.9370017526536181,0.19760117095198537,0.7741324054282647
-0.28669235466115683,0.1455475674230131,2.960500230642773,1,0.6310565619541556,0.8238625160190625,0.6144460149768302
-1.6523710623601082,-1.6263459831633285,2.286566378300675,0,0.1648996187739266,0.8561264440795169,0.2599212115548623
-0.28536290320383983,-2.2702626559194345,0.21797895171663662,0,0.1836222995469215,0.40301909301352407,0.12315050632751624
-2.154857877721201,-0.8196451234072404,2.942247137803273,1,0.3146447020067381,0.9359250888466204,0.41693195859614574
-1.9416780809626601,-1.467430313723457,1.2082191703956875,0,0.14563418063187145,0.9114646586102967,0.19300459992849245
-0.009793363563121549,0.040147206037792316,-1.747797503149144,0,0.37309651485716105,0.6266342276716736,0.5270261934033973
-0.48644730297271277,2.7984557767405738,-0.5664227373851616,0,0.6290325478500906,0.24665760093091652,0.7446283245249596
2.4890754064086007,0.4497209593778484,-0.9930399959306939,1,0.6979871485428318,0.18287917461694284,0.5596237084621072
-0.8256366053002013,2.339586335340588,-0.9359177503728651,0,0.446838797486503,0.3235706350244456,0.692795259242419
0.4835301016682605,0.9052730249746634,1.5627386361591977,1,0.8346322344636373,0.7415649233742828,0.6737286426533565
0.7935857275171823,-0.14852084047679703,0.5055775636367619,1,0.7589115936498185,0.7090840441990477,0.4399386725067329
-2.921433260469998,2.1276453764002277,-2.7714437304628285,0,0.4762209049714471,0.8099525563824777,0.8396154874446174
0.9812242321002635,-0.1717913389620147,2.2646909019058565,1,0.86298177309378,0.7181876684193768,0.633941768017904
